{"dense_13": {"weights": [[-0.31339606642723083, -0.11458154022693634, 0.09298361837863922, -0.24745067954063416, 0.29013803601264954, -0.2435941994190216, -0.23224395513534546, -0.19234183430671692, -0.030207782983779907, -0.0816367119550705, 0.2626186013221741, -0.007254540920257568, -0.15734726190567017, -0.0034991297870874405, 0.071027472615242, 0.1441642791032791, -0.21113623678684235, -0.12802821397781372, 0.2525128722190857, 0.2405281513929367, 0.024003904312849045, -0.5267514586448669, -0.0006127709639258683, 0.3172972798347473, 0.27215084433555603, -0.1951017677783966, 0.16727007925510406, 0.3145744800567627, -0.07199062407016754, -0.22559992969036102, -0.08788348734378815, -0.13844051957130432, 0.23243358731269836, 0.2415759265422821, -0.19846029579639435, 0.0028529115952551365, -0.09721437841653824, -0.12266620993614197, 0.20718643069267273, -0.1384047418832779, -0.17940901219844818, -0.40811291337013245, -0.27610477805137634, -0.29024940729141235, 0.2610519230365753, -0.0009781122207641602, 0.0426684245467186, -0.1973341554403305, -0.23906520009040833, -0.08842521905899048, 0.06505485624074936, -0.2728675901889801, -0.25324076414108276, 0.10361403226852417, -0.22376614809036255, 0.20441950857639313, -0.04855995625257492, -0.10007225722074509, -0.12478578835725784, -0.04900048300623894, 0.29290229082107544, 0.1915930211544037, 0.36045360565185547, -0.18107077479362488], [0.24659165740013123, -0.01688593626022339, 0.25929969549179077, 0.1801885962486267, -0.1302724927663803, 0.10820626467466354, -0.1258351057767868, 0.09682586789131165, -0.25903812050819397, -0.11910359561443329, 0.3100429177284241, -0.04280218482017517, -0.2914566397666931, 0.10397757589817047, 0.03968311473727226, 0.3067784309387207, 0.18336910009384155, 0.3077811002731323, 0.3211323320865631, -0.14992551505565643, -0.292420357465744, -0.07746492326259613, 0.022929513826966286, -0.20335286855697632, -0.3565782904624939, -0.2179606854915619, 0.30209973454475403, 0.09080706536769867, -0.19767269492149353, 0.05891764163970947, -0.1555994749069214, 0.212507426738739, -0.2479284256696701, -0.025066617876291275, -0.18162336945533752, 0.274099737405777, 0.015321423299610615, -0.22576123476028442, 0.02369818277657032, 0.11623264104127884, 0.37456849217414856, -0.061037976294755936, 0.03136783838272095, 0.10111615061759949, -0.058574508875608444, -0.22235846519470215, 0.267617791891098, 0.1351042091846466, 0.12049715965986252, -0.2716984450817108, -0.19995620846748352, 0.05201813578605652, 0.13877838850021362, -0.24417786300182343, -0.20698581635951996, -0.023917026817798615, -0.05802392214536667, 0.17386186122894287, 0.2947951853275299, -0.028547294437885284, -0.3048624098300934, 0.21896861493587494, -0.2774229645729065, 0.05895158648490906], [0.14465273916721344, -0.21933570504188538, 0.12005706131458282, 0.012781274504959583, 0.22407351434230804, 0.03169266879558563, 0.08063915371894836, -0.15352211892604828, -0.18439778685569763, 0.20383457839488983, -0.17842219769954681, -0.045407503843307495, 0.10781306028366089, 0.20910495519638062, -0.2038564831018448, -0.13515466451644897, -0.23033353686332703, -0.045176416635513306, -0.38745445013046265, 0.32959434390068054, 0.08675698190927505, 0.20570991933345795, 0.1287824809551239, 0.15424887835979462, 0.2581632137298584, -0.0360870361328125, 0.2212526947259903, -0.28365156054496765, -0.26709574460983276, 0.036633044481277466, -0.09183605015277863, 0.12342352420091629, -0.08087975531816483, 0.2237844169139862, 0.06185358762741089, -0.09455645829439163, -0.034774262458086014, 0.0788741409778595, 0.25807592272758484, 0.22300933301448822, -0.09600190073251724, 0.2591450810432434, -0.2420278936624527, 0.045881032943725586, 0.25334060192108154, -0.29404503107070923, 0.07345451414585114, -0.026262464001774788, 0.04406452551484108, 0.25147542357444763, 0.20016981661319733, 0.20121340453624725, 0.018796371296048164, 0.08191194385290146, -0.27120429277420044, -0.1680796891450882, 0.08465705811977386, 0.016997985541820526, 0.2559014558792114, 0.14439620077610016, 0.18165846168994904, -0.12785837054252625, -0.16852009296417236, -0.11434417963027954]], "biases": [0.07315701246261597, 0.0, -0.020563527941703796, -0.015316628850996494, 0.02112116850912571, 0.08938292413949966, 0.0, 0.0, 0.0, 0.09072022885084152, 0.004300115630030632, 0.0, 0.05464194342494011, -0.01230859849601984, 0.09592883288860321, 0.0034813585225492716, 0.0, 0.049460794776678085, 0.07339852303266525, 0.03072599321603775, -0.010162088088691235, 0.030660394579172134, 0.034457266330718994, 0.02884044125676155, 0.05078829452395439, 0.0, 0.00828836765140295, 0.044938068836927414, 0.0, 0.0, 0.0, 0.06681418418884277, 0.07965788245201111, 0.039872851222753525, 0.0, 0.007357011083513498, 0.08621620386838913, 0.0, 0.039905715733766556, 0.06305664032697678, 0.01838412508368492, 0.02177288569509983, 0.0, 0.0, 0.047351885586977005, 0.0, 0.048103827983140945, 0.0780346468091011, -0.01112192403525114, 0.04630352556705475, 0.05747397989034653, 0.10373972356319427, -0.004456845112144947, 0.08990088850259781, 0.0, 0.052932918071746826, 0.05577492713928223, 0.06115756183862686, 0.05815748870372772, 0.06613010913133621, 0.05449894815683365, 0.001081828842870891, 0.08724206686019897, 0.0]}, "dense_14": {"weights": [[-0.1419103741645813, 0.07317709177732468, -0.018483223393559456, -0.0727914422750473, 0.1623229831457138, 0.01098922360688448, -0.15637555718421936, 0.08661599457263947, -0.047486260533332825, -0.05936438590288162, 0.08502240478992462, -0.059567783027887344, 0.16077306866645813, 0.153398334980011, 0.1654791682958603, 0.3234744369983673, 0.11692728102207184, 0.08486569672822952, 0.14084133505821228, 0.09410637617111206, -0.017283543944358826, -0.1211225837469101, -0.004158349707722664, 0.0628034695982933, 0.16133873164653778, 0.21308569610118866, -0.21320635080337524, -0.1083504855632782, -0.0225208792835474, -0.10406935214996338, 0.02766108512878418, 0.0912262573838234, -0.035782307386398315, -0.09900341182947159, -0.2724562883377075, 0.10075978189706802, 0.11617414653301239, -0.05907082185149193, 0.03193197399377823, 0.22572186589241028, -0.11426874250173569, 0.25828373432159424, -0.04049201309680939, 0.0842553973197937, 0.11747284978628159, -0.15417920053005219, 0.09866376966238022, 0.11652886867523193, -0.08780324459075928, -0.016265006735920906, 0.12994447350502014, -0.016103560104966164, 0.07696430385112762, -0.11635762453079224, 0.10190854221582413, 0.09714224934577942, -0.0006303569534793496, -0.015920333564281464, -0.04780437797307968, -0.06334245949983597, -0.06665882468223572, 0.06784109026193619, 0.16937485337257385, -0.05694486200809479, -0.1057058572769165, 0.03576434403657913, -0.1572713851928711, -0.14043518900871277, -0.13457521796226501, 0.08097556233406067, 0.05699380487203598, 0.007058100309222937, -0.2056412249803543, 0.13360987603664398, 0.16732819378376007, 0.08743369579315186, -0.16672365367412567, -0.059146106243133545, -0.10247637331485748, 0.13956253230571747, -0.17872881889343262, 0.11333822458982468, 0.09808598458766937, -0.20642240345478058, 0.021257609128952026, 0.09768769145011902, 0.07647669315338135, 0.10055017471313477, -0.15374960005283356, 0.05714048445224762, -0.16220872104167938, -0.12555831670761108, 0.1066405326128006, 0.043115321546792984, 0.10316972434520721, -0.15967868268489838, 0.11350987106561661, 0.03676600381731987, 0.12066103518009186, 0.1303170621395111, 0.11008335649967194, 0.024518487975001335, 0.018936289474368095, 0.19222372770309448, -0.20116400718688965, 0.1554424911737442, -0.01526917889714241, -0.22146649658679962, 0.2906306982040405, -0.32968220114707947, 0.10453852266073227, 0.11266028881072998, 0.043898582458496094, -0.10620810836553574, 0.16424033045768738, 0.15456710755825043, 0.18073096871376038, 0.10802559554576874, 0.09848228842020035, 0.2411612719297409, -0.2176155000925064, -0.08307122439146042, 0.2692587375640869, 0.05045353248715401, -0.0030938098207116127, 0.06471222639083862, -0.23841817677021027, -0.10271038115024567], [0.014087125658988953, 0.10724513232707977, 0.04142424464225769, 0.13247652351856232, -0.04330107569694519, 0.1531571000814438, -0.11145973950624466, -0.15048368275165558, 0.09121628105640411, -0.04182042181491852, -0.1740652173757553, 0.020593196153640747, -0.08491165190935135, 0.17325131595134735, 0.01974385976791382, 0.1610158234834671, 0.03310689330101013, 0.08548058569431305, 0.06221342086791992, -0.11309491097927094, 0.1276235729455948, -0.12123177945613861, -0.04285992681980133, -0.1479974389076233, -0.14495451748371124, -0.09464774280786514, -0.1193481981754303, -0.004883304238319397, 0.126272514462471, 0.01898495852947235, 0.08851395547389984, 0.02062852680683136, 0.13177473843097687, -0.033942580223083496, -0.1685357689857483, 0.17040877044200897, -0.0716722309589386, 0.1184716671705246, -0.13172774016857147, -0.1142158955335617, 0.13693200051784515, 0.06756313145160675, -0.17408545315265656, 0.16867534816265106, 0.07094700634479523, 0.034926339983940125, 0.10154782235622406, 0.02489340305328369, -0.17300455272197723, 0.15719424188137054, -0.025323644280433655, -0.07967254519462585, 0.03706765174865723, -0.16706155240535736, -0.024676606059074402, 0.08264543116092682, -0.008193597197532654, -0.1485014259815216, -0.04571053385734558, 0.10241477191448212, -0.11808282136917114, 0.07621230185031891, -0.10707984119653702, 0.016261428594589233, -0.0558917373418808, 0.10461984574794769, -4.0158629417419434e-05, -0.134018674492836, 0.16548554599285126, -0.11622823774814606, 0.033287033438682556, -0.0994153544306755, -0.048413246870040894, -0.11891260743141174, 0.021628037095069885, -0.15315823256969452, -0.07998965680599213, 0.03198334574699402, -0.16409938037395477, 0.03233969211578369, -0.06780829280614853, 0.12588579952716827, 0.14624564349651337, 0.12731875479221344, -0.10666608810424805, 0.14527614414691925, -0.163638174533844, -0.15635262429714203, 0.10850192606449127, 0.005437791347503662, -0.03746235370635986, 0.15007291734218597, 0.038117989897727966, -0.1496131718158722, 0.06991621851921082, 0.05661080777645111, 0.09357212483882904, -0.13877519965171814, 0.15660111606121063, 0.15827248990535736, 0.1607193797826767, 0.10623036324977875, -0.1041548103094101, 0.04723595082759857, 0.08187355101108551, 0.011921614408493042, -0.018813177943229675, -0.09999078512191772, -0.09220234304666519, 0.16367782652378082, 0.07469622790813446, -0.11763353645801544, -0.13760679960250854, -0.08225100487470627, -0.0861697793006897, -0.1228218525648117, 0.1621560901403427, -0.1306845247745514, 0.09900335967540741, 0.14280585944652557, 0.08695445954799652, -0.10526550561189651, 0.05836613476276398, 0.06509120762348175, -0.0303659588098526, 0.07048170268535614, 0.08458687365055084, -0.101450115442276], [0.163849338889122, -0.308601051568985, -0.024221306666731834, -0.095423623919487, -0.17027941346168518, 0.08005297929048538, -0.09999942034482956, -0.1487962007522583, 0.060234613716602325, 0.035967618227005005, -0.14542090892791748, 0.11210767179727554, 0.20136091113090515, 0.11334153264760971, -0.007772560231387615, 0.1698026955127716, -0.04614907503128052, -0.11694242805242538, -0.048214904963970184, -0.02140459232032299, 0.025898858904838562, -0.04130793735384941, -0.07873920351266861, -0.0773104727268219, -0.05760609731078148, -0.2015964686870575, -0.2069227248430252, 0.10160611569881439, 0.10401447117328644, 0.023154214024543762, -0.08191963285207748, -0.039194755256175995, 0.15107031166553497, 0.12709854543209076, 0.016831466928124428, -0.1376764476299286, -0.08731506019830704, -0.3015942871570587, -0.12396837770938873, -0.008617522194981575, 0.03474387526512146, -0.14545419812202454, 0.10052002221345901, 0.1485658884048462, -0.1385510265827179, 0.027279675006866455, 0.16652579605579376, -0.09239809215068817, 0.18264324963092804, -0.19152270257472992, -0.09293495863676071, -0.08658736199140549, 0.09627343714237213, -0.22122007608413696, -0.09994051605463028, -0.13497713208198547, 0.0878840759396553, -0.1479838639497757, -0.056710001081228256, 0.1080390140414238, -0.06822778284549713, -0.09058505296707153, -0.1307975947856903, 0.09705682843923569, 0.11963517963886261, 0.0323665514588356, 0.035670164972543716, -0.09405530989170074, 0.05672084912657738, 0.24629749357700348, -0.14286018908023834, -0.12333633750677109, -0.0230756513774395, -0.02009918913245201, -0.04954623803496361, 0.08198646456003189, 0.09109372645616531, -0.16176752746105194, 0.011362312361598015, -0.11477938294410706, -0.10335832834243774, -0.11353274434804916, -0.14354710280895233, -0.14293073117733002, -0.029701126739382744, -0.11202619969844818, 0.023568663746118546, -0.17742209136486053, -0.1616792529821396, 0.021119752898812294, 0.1038881316781044, -0.030665555968880653, -0.1127469465136528, 0.14971581101417542, 0.07396456599235535, -0.08628715574741364, -0.06092826649546623, -0.10821367800235748, 0.02147643268108368, 0.08413486927747726, -0.08210708200931549, -0.18766039609909058, 0.08606187999248505, 0.11184584349393845, -0.22229480743408203, 0.09684549272060394, -0.012520628049969673, -0.20763316750526428, -0.09016567468643188, -0.025277988985180855, 0.14069363474845886, -0.11886876076459885, -0.19177797436714172, -0.031186526641249657, -0.19183342158794403, -0.09717166423797607, -0.07982824742794037, 0.14633774757385254, -0.13150864839553833, 0.04882736876606941, -0.20100317895412445, 0.16329337656497955, 0.07265555113554001, -0.11996499449014664, 0.06926347315311432, 0.052193231880664825, -0.11361786723136902, 0.04283922165632248], [0.07917411625385284, 0.016164451837539673, 0.13148793578147888, 0.08190219104290009, -0.1612253040075302, 0.06652034819126129, -0.1432417929172516, 0.11701960116624832, 0.06462294608354568, 0.1456882506608963, -0.08658700436353683, -0.0677521601319313, -0.1697491854429245, -0.026490168645977974, 0.10875869542360306, -0.08917481452226639, -0.08899690210819244, 0.13075925409793854, 0.12017929553985596, 0.11256776750087738, -0.10309650003910065, -0.02452056296169758, -0.06604690104722977, -0.16784918308258057, -0.10086430609226227, 0.038247596472501755, 0.1307132989168167, 0.09007199108600616, -0.045604169368743896, -0.10263215005397797, 0.16296978294849396, -0.008358911611139774, 0.02385115623474121, -0.09665746986865997, -0.04842066019773483, -0.16195331513881683, -0.10408424586057663, -0.13366281986236572, 0.14626038074493408, -0.009982322342693806, -0.15935710072517395, -0.14250874519348145, -0.09772547334432602, 0.14014989137649536, -0.11093288660049438, 0.16384927928447723, -0.12397335469722748, 0.07989448308944702, 0.08822892606258392, -0.1320580691099167, 0.16221077740192413, -0.1562894731760025, 0.032485231757164, 0.028996268287301064, 0.1597089022397995, 0.041140973567962646, 0.029470589011907578, -0.12489673495292664, 0.083454929292202, -0.08171916753053665, -0.023185744881629944, 0.00515980739146471, -0.13977231085300446, -0.01763749122619629, 0.006257832050323486, 0.1367785930633545, 0.015759043395519257, 0.1648297756910324, -0.04407503083348274, 0.15874570608139038, 0.17892052233219147, 0.12352273613214493, 0.1272604614496231, 0.07428884506225586, 0.11706984788179398, -0.13846948742866516, 0.045686330646276474, 0.17064975202083588, -0.04350903630256653, -0.0492449626326561, 0.058757420629262924, 0.11375363171100616, -0.12299969047307968, -0.035168375819921494, 0.1664234846830368, -0.046651169657707214, 0.1344618946313858, -0.14598888158798218, 0.11992628872394562, -0.13289326429367065, 0.04255802184343338, -0.03652496263384819, -0.15297392010688782, -0.1552075296640396, 0.18372412025928497, -0.06517229974269867, 0.17781610786914825, -0.11473338305950165, -0.12803280353546143, -0.0454811230301857, -0.07890695333480835, -0.08507364243268967, -0.05738893523812294, -0.040171459317207336, -0.1047649011015892, 0.1134604960680008, -0.018002912402153015, -0.10435742139816284, -0.14516940712928772, 0.1065930426120758, 0.1473877727985382, 0.17760823667049408, -0.11422280967235565, -0.06878062337636948, 0.11208949983119965, -0.11278766393661499, 0.10317622870206833, -0.0059404741041362286, 0.06326904892921448, -0.001201579929329455, -0.004081593360751867, 0.030763104557991028, -0.11863485723733902, -0.1428450345993042, -0.13324829936027527, -0.14005829393863678, 0.006518721580505371, 0.0647415742278099], [-0.1066572293639183, -0.15751008689403534, -0.15922312438488007, 0.006972223520278931, 0.03176768124103546, 0.016118261963129044, -0.1261816769838333, 0.11653482168912888, 0.11904842406511307, -0.06316674500703812, 0.0878848060965538, 0.179494246840477, -0.017684707418084145, -0.09525083005428314, -0.14529502391815186, 0.014382245019078255, -0.1459757685661316, -0.12647145986557007, 0.15456053614616394, 0.11793409287929535, 0.05251476168632507, 0.15565577149391174, 0.14364075660705566, -0.01493900641798973, 0.19173792004585266, 0.12192167341709137, 0.0925140455365181, -0.1254938393831253, -0.1117970198392868, -0.17014239728450775, 0.09960302710533142, -0.11752127856016159, -0.15014716982841492, -0.13304740190505981, -0.06180526688694954, -0.21473048627376556, 0.030979463830590248, -0.3151248097419739, -0.0037810271605849266, -0.03374248370528221, -0.17648279666900635, 0.09407290816307068, -0.07069842517375946, 0.010857786983251572, 0.06900495290756226, 0.16807834804058075, -0.004524668678641319, -0.20598232746124268, 0.20288647711277008, 0.18423204123973846, 0.043003011494874954, -0.127433180809021, -0.12952156364917755, -0.14799350500106812, 0.14245666563510895, -0.18213820457458496, 0.10954558849334717, -0.12205436080694199, -0.1287049502134323, -0.027944784611463547, -0.05287216603755951, 0.07660695165395737, 0.017492296174168587, -0.09591870754957199, 0.12556467950344086, -0.08460753411054611, -0.0004065106331836432, -0.11558590084314346, -0.052694570273160934, -0.10762803256511688, 0.012905949726700783, -0.08268390595912933, 0.16332876682281494, 0.03586199879646301, -0.08999496698379517, 0.1042274534702301, -0.03427588567137718, 0.0018984675407409668, -0.1339147686958313, 0.13840462267398834, 0.06372181326150894, -0.14946486055850983, -0.09253841638565063, 0.13929051160812378, 0.0778733342885971, 0.11208967864513397, -0.05916367843747139, -0.08491399139165878, -0.13052187860012054, -0.23853495717048645, 0.1643633395433426, 0.026947807520627975, 0.0711001306772232, 0.028098944574594498, -0.05597935616970062, 0.2520999312400818, -0.005845691543072462, -0.09189831465482712, -0.13456182181835175, -0.06599906086921692, -0.12072689831256866, -0.04932590201497078, -0.03337635099887848, 0.04143879935145378, -0.09422783553600311, -0.16845986247062683, -0.016432195901870728, 0.04910145699977875, 0.034028515219688416, 0.2051403522491455, -0.00490680243819952, -0.09258123487234116, -0.16823068261146545, 0.05165020376443863, -0.20497502386569977, -0.09381365776062012, -0.09201214462518692, -0.046579450368881226, -0.0057867481373250484, 0.14064575731754303, 0.13142161071300507, -0.0707554966211319, -0.13948296010494232, -0.04258735105395317, 0.1310240775346756, 0.08411356061697006, 0.1132989302277565, 0.1165844276547432], [-0.16053038835525513, 0.24491262435913086, 0.2361106127500534, -0.12821146845817566, -0.018506765365600586, 0.1522403061389923, -0.09068147093057632, 0.025585226714611053, -0.0715971514582634, -0.06700733304023743, -0.02849222533404827, -0.0019367075292393565, 0.0619451180100441, 0.2426602989435196, 0.30462151765823364, 0.14262324571609497, 0.1764938086271286, 0.14214648306369781, 0.16842441260814667, 0.12942054867744446, -0.08510810136795044, -0.10009469091892242, 0.06687600910663605, 0.010650916025042534, -0.12104135751724243, 0.2238224744796753, 0.10824239999055862, 0.10709719359874725, 0.2646786570549011, 0.23102699220180511, 0.15439866483211517, -0.17456617951393127, -0.01770898886024952, -0.07089398801326752, -0.05674717202782631, 0.22362492978572845, 0.05935125797986984, 0.20478440821170807, 0.2657519578933716, 0.27407392859458923, -0.14494170248508453, 0.07391541451215744, 0.13428527116775513, -0.17386232316493988, -0.05726445093750954, 0.018429383635520935, 0.1765628159046173, 0.02754393219947815, -0.04320546239614487, -0.1398087441921234, -0.16279533505439758, -0.0065001631155610085, 0.009985685348510742, 0.04631270095705986, 0.012584657408297062, 0.054839346557855606, -0.1116531491279602, 0.05567799508571625, -0.27410146594047546, -0.07449529320001602, -0.08593939989805222, 0.26761141419410706, 0.21718083322048187, 0.1634540557861328, -0.14031334221363068, -0.10417824238538742, -0.05589836835861206, 0.18687640130519867, 0.08256058394908905, -0.062088508158922195, 0.009810341522097588, 0.20165379345417023, 0.020339544862508774, 0.28326600790023804, 0.05317683517932892, 0.03099791519343853, 0.062313444912433624, 0.1300177127122879, -0.19471675157546997, 0.03462911397218704, 0.12005708366632462, -0.0013973645400255919, -0.01861807145178318, -0.08981756120920181, 0.02645118534564972, 0.0035863667726516724, 0.14668558537960052, -0.07550997287034988, 0.004650309216231108, 0.2617253363132477, -0.10437469184398651, -0.08123036473989487, 0.03742682933807373, 0.20297878980636597, 0.07597345113754272, -0.1669853776693344, -0.011027912609279156, 0.012937053106725216, -0.0671684592962265, 0.21924331784248352, 0.27394506335258484, 0.015336942858994007, -0.05936238542199135, 0.28347983956336975, -0.1743192821741104, -0.04476475715637207, 0.16049177944660187, -0.09261216968297958, 0.2426101118326187, -0.24937978386878967, -0.08732876926660538, 0.2243284434080124, 0.20865586400032043, -0.11942730844020844, 0.2765291929244995, 0.025722816586494446, 0.2685423493385315, -0.16964799165725708, 0.01648298092186451, 0.09475694596767426, 0.1281975358724594, 0.11031101644039154, 0.30753278732299805, 0.0581115260720253, 0.07920558750629425, -0.01129943411797285, -0.0648287758231163, -0.14801737666130066], [-0.08535069972276688, 0.03022564947605133, -0.12301547825336456, 0.15323089063167572, 0.1666320413351059, 0.12962685525417328, 0.046577826142311096, -0.0021636933088302612, -0.16162726283073425, 0.11346791684627533, -0.14726845920085907, 0.17301912605762482, -0.09410712867975235, -0.1449296921491623, -0.052914947271347046, -0.12367904186248779, 0.061999186873435974, 0.10200284421443939, 0.09840668737888336, 0.023917317390441895, 0.0439169704914093, -0.14151744544506073, 0.17618532478809357, -0.04923202097415924, -0.1301683932542801, 0.09335921704769135, 0.16426433622837067, 0.12118850648403168, -0.12200462818145752, -0.06789102405309677, 0.16696618497371674, -0.15940594673156738, -0.1578279733657837, -0.014391884207725525, -0.0607173815369606, 0.020255863666534424, 0.050616636872291565, 0.16014941036701202, 0.07989563047885895, 0.17589838802814484, -0.17489761114120483, 0.1215582937002182, 0.05226579308509827, -0.08883602917194366, 0.07724215090274811, 0.08700846135616302, -0.02705848217010498, 0.017904862761497498, 0.15049578249454498, 0.15487785637378693, 0.0030523985624313354, 0.17105786502361298, -0.014347672462463379, -0.11744080483913422, -0.1430717408657074, 0.1223524659872055, 0.16987262666225433, 0.014276742935180664, -0.0069306641817092896, 0.1591033786535263, 0.16564925014972687, -0.032883986830711365, 0.10599614679813385, -0.08802959322929382, 0.1239042729139328, -0.12087088078260422, -0.09429771453142166, -0.03387796878814697, 0.165485218167305, 0.036070406436920166, 0.007533207535743713, 0.12619437277317047, -0.009747892618179321, -0.16785496473312378, -0.04117476940155029, 0.12451742589473724, 0.16436098515987396, 0.010452881455421448, -0.029374420642852783, 0.0393800288438797, 0.05823206901550293, 0.12241159379482269, 0.11234940588474274, 0.17454566061496735, 0.043932318687438965, 0.091279998421669, -0.13318201899528503, -0.03896135091781616, 0.0614737868309021, -0.14770109951496124, -0.0077393800020217896, 0.1179221123456955, 0.02470003068447113, 0.1437559872865677, 0.0369870662689209, -0.06314786523580551, -0.0017873197793960571, -0.05882435292005539, -0.08783908933401108, 0.12818394601345062, 0.030842646956443787, -0.14650914072990417, -0.09983998537063599, -0.12079194188117981, -0.13894033432006836, -0.0631248950958252, -0.12708261609077454, 0.08092440664768219, -0.1076059564948082, 0.0010729730129241943, 0.10869784653186798, 0.11446742713451385, 0.07061514258384705, 0.13036741316318512, 0.15347029268741608, -0.05417913943529129, -0.022416815161705017, -0.11799409985542297, -0.039008840918540955, 0.04173430800437927, -0.029031679034233093, -0.10295838862657547, -0.17436635494232178, -0.001668304204940796, 0.012016579508781433, -0.08471773564815521, -0.022483110427856445, -0.08388963341712952], [-0.10279729962348938, -0.08447816967964172, 0.13633684813976288, -0.11354441195726395, -0.014690235257148743, 0.04847157001495361, 0.14194555580615997, 0.16485171020030975, 0.03221431374549866, -0.16214339435100555, -0.10605074465274811, -0.10658545792102814, 0.03229987621307373, 0.03257365524768829, -0.026024118065834045, -0.08630106598138809, -0.010227814316749573, 0.07998551428318024, -0.1074577271938324, 0.08441655337810516, 0.01574087142944336, -0.10881911218166351, -0.1479070782661438, 0.036218687891960144, 0.11641831696033478, -0.11888335645198822, 0.1678953319787979, -0.013654276728630066, 0.05043455958366394, 0.042345985770225525, 0.1397852748632431, 0.0959208756685257, -0.13368499279022217, -0.17581140995025635, -0.13022761046886444, -0.039749667048454285, 0.0033325999975204468, 0.10787461698055267, 0.07573641836643219, -0.1301162987947464, -0.051177024841308594, -0.011450961232185364, -0.1226375475525856, -0.1658422350883484, -0.06770595908164978, 0.006088152527809143, -0.10818126797676086, -0.04406161606311798, 0.13609011471271515, -0.1584193855524063, -0.07657138258218765, 0.15082000195980072, -0.014396905899047852, 0.07289823889732361, 0.10537289083003998, -0.17051008343696594, 0.03385934233665466, -0.15281882882118225, -0.17034031450748444, -0.010696783661842346, -0.11096008867025375, -0.025468364357948303, 0.03834439814090729, -0.07113920152187347, 0.0885823518037796, -0.08113478869199753, 0.12259398400783539, 0.1586451679468155, 0.015894636511802673, -0.0934564620256424, -0.04746624827384949, -0.15426045656204224, 0.01846727728843689, 0.12838171422481537, -0.13336552679538727, -0.06289759278297424, -0.12007670104503632, 0.11291946470737457, 0.12513594329357147, -0.11619806289672852, 0.030415236949920654, 0.12311245501041412, 0.15103505551815033, -0.07135751843452454, -0.06247086077928543, 0.024198785424232483, -0.07883993536233902, -0.09450836479663849, 0.12535454332828522, 0.160568967461586, 0.12717469036579132, 0.04015082120895386, -0.012701883912086487, 0.1356087476015091, -0.14182958006858826, -0.06188834458589554, 0.11866404116153717, 0.05426111817359924, 0.01786816120147705, -0.06732575595378876, 0.13668499886989594, 0.09857131540775299, -0.1452721357345581, 0.14982499182224274, -0.15865042805671692, -0.07615825533866882, 0.13581176102161407, 0.1339668184518814, 0.14376039803028107, -0.11746098846197128, -0.16744191944599152, 0.11976529657840729, 0.1750258356332779, -0.012628212571144104, 0.06968298554420471, -0.156087264418602, -0.04000638425350189, 0.10022015869617462, 0.17675645649433136, -0.16183124482631683, -0.03938096761703491, 0.004133597016334534, -0.1680045872926712, -0.142315074801445, 0.0914931446313858, -0.04753907024860382, 0.08497343957424164, -0.03180691599845886], [-0.0534241646528244, 0.14517860114574432, 0.1628069430589676, -0.12777116894721985, -0.03730712831020355, 0.0710170567035675, -0.10669664293527603, -0.02221493422985077, 7.452070713043213e-05, 0.10061417520046234, 0.021929681301116943, -0.04963983595371246, 0.14790849387645721, 0.09256340563297272, -0.010068252682685852, 0.012000814080238342, -0.03368118405342102, 0.0008888393640518188, -0.151312917470932, 0.09727184474468231, 0.1702766865491867, 0.01734401285648346, 0.1422041803598404, 0.040847837924957275, 0.04708738625049591, -0.0579892173409462, -0.08235511183738708, 0.10500456392765045, -0.0667034164071083, 0.0718117356300354, -0.035446763038635254, -0.11004651337862015, 0.07796947658061981, -0.13715027272701263, 0.03061656653881073, -0.04804374277591705, -0.15980103611946106, -0.10082364827394485, -0.16427066922187805, 0.06183402240276337, -0.060953907668590546, 0.09241180121898651, -0.011406034231185913, 0.005040004849433899, 0.022236719727516174, -0.10994022339582443, -0.0030506253242492676, -0.15859727561473846, -0.01524139940738678, 0.05052323639392853, 0.16373379528522491, -0.10851207375526428, -0.009954288601875305, 0.009307041764259338, -0.1241150051355362, 0.004697725176811218, -0.011277526617050171, -0.07617975026369095, 0.031352490186691284, -0.05125752091407776, 0.10901658236980438, -0.016765594482421875, -0.03017491102218628, 0.05557112395763397, -0.06737396866083145, -0.05683396756649017, -0.1350141018629074, -0.10171003639698029, 0.0316506028175354, -0.06930522620677948, 0.14889101684093475, -0.11255480349063873, 0.07557488977909088, 0.08143796026706696, -0.1164231225848198, 0.1674264520406723, 0.05605791509151459, -0.03713183104991913, 0.145718052983284, -0.09373657405376434, 0.0055715590715408325, 0.058084338903427124, -0.01220172643661499, 0.15636517107486725, 0.11323870718479156, 0.04083418846130371, 0.16770659387111664, 0.10526372492313385, 0.04342997074127197, -0.1177842989563942, -0.14865411818027496, -0.03039306402206421, -0.04283161461353302, 0.025735244154930115, 0.028886571526527405, 0.014858201146125793, 0.033360034227371216, -0.16981862485408783, 0.06848496198654175, -0.10794111341238022, 0.019085943698883057, 0.061779096722602844, 0.04755230247974396, 0.02161690592765808, -0.07720016688108444, 0.03085196018218994, 0.08411680161952972, 0.06507843732833862, 0.06942500174045563, 0.03138212859630585, -0.1757865846157074, -0.0953655019402504, -0.06662177294492722, 0.06289321184158325, 0.1535813957452774, 0.09902520477771759, 0.12655411660671234, 0.09471724927425385, 0.047866806387901306, 0.007200613617897034, -0.07755976915359497, -0.040170326828956604, 0.1067739874124527, 0.1557522863149643, -0.14003880321979523, 0.01863059401512146, -0.12187262624502182, -0.06087901443243027], [0.13884268701076508, -0.052599627524614334, 0.07293333858251572, 0.12930093705654144, -0.0463968962430954, -0.0030228248797357082, -0.1021050363779068, 0.20543161034584045, 0.0323968343436718, -0.04475480318069458, -0.12178505957126617, -0.041905954480171204, -0.1513342261314392, 0.09408564120531082, 0.11348699033260345, 0.1595972627401352, 0.0997220128774643, -0.07646088302135468, 0.0798901915550232, -0.023037752136588097, 0.004640832543373108, -0.10699845850467682, 0.14977483451366425, 0.17824389040470123, -0.14185699820518494, 0.10737837105989456, 0.18900057673454285, 0.12480069696903229, 0.12227202206850052, 0.18255029618740082, 0.17398317158222198, -0.14789755642414093, 0.09666934609413147, 0.021005108952522278, -0.03849548473954201, -0.047538820654153824, 0.11491741240024567, -0.1905624121427536, 0.08368571102619171, 0.1879814714193344, -0.04543396830558777, -0.01715589128434658, 0.04651996120810509, -0.06645708531141281, 0.06062590330839157, 0.1388363391160965, -0.06353793293237686, 0.03582270070910454, 0.020936593413352966, -0.06273995339870453, -0.12872502207756042, 0.012499901466071606, 0.11496441066265106, 0.050178926438093185, 0.036777105182409286, 0.08902758359909058, -0.048271238803863525, -0.0862923115491867, 0.06407971680164337, 0.24064932763576508, 0.06615529954433441, 0.10075720399618149, -0.013757768087089062, 0.027384266257286072, -0.11620362102985382, -0.04427586868405342, 0.10396378487348557, 0.022677777335047722, -0.14427757263183594, -0.014969350770115852, 0.0853213369846344, 0.06379101425409317, -0.01929299533367157, 0.14122383296489716, -0.11088989675045013, -0.22305050492286682, 0.1978551745414734, -0.12597456574440002, 0.09099510312080383, -0.005930977873504162, -0.11920560896396637, -0.07812745869159698, -0.07684069126844406, -0.07540291547775269, 0.04288109391927719, 0.08790727704763412, -0.027294863015413284, 0.02434023842215538, 0.14924001693725586, -0.04496890679001808, 0.05473076179623604, 0.0472552590072155, -0.14764243364334106, -0.22621966898441315, 0.16019058227539062, -0.08841711282730103, -0.020527470856904984, 0.1512700319290161, -0.1519552767276764, 0.19075290858745575, 0.13634175062179565, 0.0018403369467705488, 0.04947001859545708, -0.053843602538108826, -0.05624882131814957, -0.10225684940814972, -0.14397038519382477, 0.2302597314119339, -0.11408553272485733, 0.13540513813495636, -0.18135929107666016, 0.02199583128094673, 0.10229868441820145, 0.11103003472089767, 0.20361097157001495, 0.0884840339422226, 0.1513417661190033, 0.03453685715794563, 0.07130604982376099, -0.11046405136585236, -0.08197756856679916, -0.038516566157341, 0.01592061296105385, -0.10886121541261673, -0.007312074303627014, -0.1358320415019989, 0.1025051698088646, 0.11683177947998047], [-0.07587391883134842, -0.20908738672733307, -0.1854930818080902, 0.09130819141864777, -0.17106710374355316, -0.2125253826379776, -0.038720354437828064, -0.17975850403308868, -0.05181165784597397, -0.09314723312854767, 0.14789453148841858, -0.05035429447889328, 0.10736733675003052, -0.040244538336992264, -0.006427909713238478, -0.15366952121257782, 0.06717680394649506, 0.014362508431077003, -0.0888906940817833, 0.08849392831325531, -0.12492494285106659, -0.09983804821968079, -0.05449115112423897, 0.025060243904590607, 0.20917604863643646, 0.10348843783140182, -0.10671110451221466, 0.04874114692211151, 0.13443942368030548, -0.06298273801803589, -0.025024140253663063, 0.055670659989118576, 0.15158188343048096, -0.04417267441749573, 0.2176194041967392, 0.07542917877435684, 0.14731331169605255, -0.023742102086544037, -0.11500559002161026, 0.09654303640127182, -0.047708719968795776, -0.1007469892501831, 0.10469456762075424, 0.13934646546840668, 0.11528962105512619, -0.12010014057159424, 0.053122442215681076, 0.04017770290374756, 0.19154369831085205, 0.19972676038742065, -0.059390611946582794, -0.1179705336689949, -0.10125097632408142, 0.09304448217153549, -0.05904905125498772, -0.03303806856274605, -0.02731274627149105, -0.053419262170791626, 0.13883142173290253, 0.15459513664245605, -0.06737253814935684, 0.12719891965389252, -0.13884548842906952, -0.11848457902669907, -0.030396178364753723, 0.16239407658576965, 0.15969881415367126, 0.07043924182653427, 0.05120164528489113, -0.03932918235659599, -0.07450536638498306, 0.11401545256376266, 0.05290553718805313, -0.07701124995946884, 0.1522076278924942, 0.04353556036949158, -0.024318305775523186, -0.14864076673984528, 0.08355959504842758, 0.044217728078365326, -0.02750816009938717, -0.11516626179218292, -0.17932140827178955, -0.024880096316337585, 0.10297022759914398, -0.0665651261806488, 0.08011888712644577, 0.0008715894655324519, 0.07369937747716904, -0.17713536322116852, -0.07164665311574936, -0.07206215709447861, -0.07978006452322006, 0.0471346378326416, 0.007266746833920479, 0.18432581424713135, 0.08826341480016708, 0.05316751450300217, 0.05305057764053345, -0.14880068600177765, -0.14446766674518585, -0.10535470396280289, 0.1533551961183548, -0.09564721584320068, 0.09358786791563034, -0.1660546213388443, 0.11323591321706772, -0.257926881313324, -0.05294812098145485, -0.027956660836935043, 0.06733550131320953, -0.05150036886334419, 0.06145114824175835, -0.12589146196842194, 0.08168797194957733, -0.1558823138475418, -0.16523395478725433, 0.1230340451002121, -0.16441123187541962, 0.19359898567199707, -0.05293077602982521, -0.07592315971851349, -0.13770383596420288, -0.12058424949645996, -0.17812176048755646, 0.002500625094398856, -0.09398521482944489, -0.009641899727284908], [-0.1589224934577942, 0.055612221360206604, -0.02195829153060913, -0.03266102075576782, -0.11536498367786407, 0.1756577342748642, -0.11050696671009064, -0.007713794708251953, -0.12546543776988983, 0.05015799403190613, 0.15141655504703522, 0.13202516734600067, -0.16719473898410797, 0.14169977605342865, -0.018129587173461914, -0.10747332125902176, -0.14988869428634644, 0.10601504147052765, 0.12840302288532257, -0.04604615271091461, 0.08672954142093658, 0.17427103221416473, -0.15667492151260376, 0.1258508712053299, 0.12490184605121613, 0.1709701269865036, 0.07434375584125519, -0.05212228745222092, -0.0439230352640152, 0.13898642361164093, 0.0448005348443985, 0.1162070482969284, 0.12828154861927032, 0.12035562098026276, 0.07806865870952606, 0.08021469414234161, 0.01082448661327362, 0.02902388572692871, -0.05459626764059067, 0.14813457429409027, -0.1378602683544159, -0.13839149475097656, 0.023738235235214233, -0.07804694026708603, -0.02720971405506134, -0.04627159237861633, -0.1675185114145279, -0.17298027873039246, 0.16884945333003998, -0.07538768649101257, 0.1338033527135849, -0.051265448331832886, 0.04962943494319916, -0.1036793515086174, -0.10208864510059357, -0.12654000520706177, 0.07193312048912048, 0.15761537849903107, 0.06953829526901245, 0.10560376942157745, 0.1021735817193985, 0.04107917845249176, 0.09539072215557098, 0.06363284587860107, 0.14249937236309052, 0.11283592879772186, 0.0935739129781723, -0.1185145378112793, -0.11774514615535736, -0.09083079546689987, 0.04524299502372742, -0.038290709257125854, 0.11465142667293549, -0.05729678273200989, 0.11517928540706635, -0.06779611110687256, -0.039929285645484924, -0.07115230709314346, -0.13890551030635834, 0.12447552382946014, -0.15412697196006775, -0.15158367156982422, -0.055012717843055725, 0.07135452330112457, -0.13373814523220062, -0.09628704190254211, 0.11293567717075348, -0.05327121168375015, 0.16728998720645905, -0.07359560579061508, -0.14685150980949402, 0.16528017818927765, -0.060233622789382935, 0.035671159625053406, -0.17054195702075958, 0.05313052237033844, 0.14842991530895233, -0.1677086353302002, 0.17342509329319, 0.03286363184452057, 0.07206179201602936, -0.036490872502326965, 0.15015311539173126, -0.05115155875682831, 0.02145455777645111, -0.09234530478715897, 0.09290091693401337, 0.08556841313838959, 0.09811638295650482, -0.02385692298412323, -0.09224836528301239, -0.07816862314939499, -0.07574513554573059, 0.14947517216205597, -0.07413853704929352, 0.08765502274036407, -0.020222947001457214, -0.13938835263252258, 0.1592586189508438, -0.11699771136045456, 0.13621918857097626, -0.155016228556633, -0.0033303946256637573, 0.16656897962093353, -0.06874896585941315, -0.03146924078464508, -0.046897098422050476, -0.027766674757003784], [-0.0013357549905776978, 0.3495810329914093, 0.2520851194858551, -0.002936616539955139, 0.03078271448612213, 0.25057992339134216, -0.17509423196315765, 0.12845712900161743, 0.16881206631660461, 0.1335737258195877, -0.0308232344686985, -0.022305475547909737, -0.07657226175069809, 0.04269510507583618, -0.04747164621949196, 0.1502111256122589, -0.11574552953243256, 0.06016942486166954, 0.17009684443473816, 0.1645108312368393, -0.15660399198532104, 0.0014139561681076884, -0.06492813676595688, 0.14195014536380768, 0.011626165360212326, -0.024216480553150177, 0.030110394582152367, -0.026358678936958313, 0.07472823560237885, -0.006144592072814703, -0.0913105309009552, 0.13472037017345428, 0.1278681755065918, 0.14120091497898102, -0.028621753677725792, -0.1799551099538803, 0.09920426458120346, -0.310510516166687, 0.07785341143608093, 0.07665420323610306, -0.048569902777671814, -0.0023704736959189177, -0.17995665967464447, 0.05737348645925522, 0.20853404700756073, 0.06490884721279144, 0.024834031239151955, -0.13286927342414856, 0.05044044181704521, 0.1926238238811493, -0.09128846973180771, 0.05696626007556915, -0.0441155731678009, 0.3277043402194977, -0.019587013870477676, -0.013422083109617233, 0.16814689338207245, -0.09723645448684692, -0.07302314043045044, 0.1575026512145996, -0.02942553162574768, 0.085439532995224, 0.019892342388629913, -0.04323805496096611, -0.0829220712184906, -0.16075710952281952, -0.019205590710043907, 0.056118905544281006, 0.15604473650455475, -0.08167745172977448, 0.24526076018810272, 0.18365894258022308, 0.17637059092521667, -0.16397346556186676, 0.1441344916820526, -0.14848797023296356, -0.0030524872709065676, -0.10323790460824966, 0.15721248090267181, -0.08916576951742172, 0.0474136620759964, -0.09396420419216156, 0.13643409311771393, 0.28577229380607605, 0.030649056658148766, 0.0772458165884018, 0.02768375165760517, 0.1440548300743103, -0.17391660809516907, 0.22460131347179413, 0.16642145812511444, 0.0370253324508667, 0.17423014342784882, -0.11005090177059174, -0.010554253123700619, 0.10113871097564697, -0.008182961493730545, -0.07331845164299011, -0.14930739998817444, 0.2147187888622284, 0.11318298429250717, 0.08873647451400757, 0.21309931576251984, 0.22251881659030914, 0.05968199670314789, -0.1644183099269867, 0.02267037332057953, 0.13549597561359406, -0.08391933888196945, 0.5221121311187744, -0.09724904596805573, 0.227430060505867, -0.01627802476286888, -0.04546443372964859, 0.19854837656021118, 0.15486569702625275, -0.028242850676178932, -0.0156903974711895, 0.08351947367191315, -0.22107812762260437, 0.13535305857658386, 0.09175677597522736, -0.23007993400096893, -0.09204810112714767, 0.07358502596616745, -0.021150607615709305, 0.05893250182271004, -0.1196376234292984], [-0.03517894074320793, -0.14028573036193848, -0.015498131513595581, -0.12076255679130554, 0.016790255904197693, -0.049371279776096344, 0.00351753830909729, -0.1470695286989212, -0.19160786271095276, -0.1401287019252777, -0.05522759258747101, -0.20357704162597656, -0.14335691928863525, -0.04882895201444626, -0.043880052864551544, 0.07734157145023346, 0.06402856111526489, -0.2238941788673401, -0.1429973542690277, -0.1304207444190979, 0.06698967516422272, 0.12189577519893646, -0.08406006544828415, -0.16610948741436005, -0.0717369094491005, 0.11374296993017197, -0.17288696765899658, 0.05225294828414917, -0.05723033845424652, 0.07327377796173096, 0.10789686441421509, 0.06635385751724243, 0.11223401129245758, -0.12170775234699249, 0.0617084763944149, -0.09578385949134827, -0.09338364750146866, -0.48474857211112976, 0.06385161727666855, -0.20278172194957733, -0.100739985704422, 0.09142936021089554, -0.056139297783374786, 0.21436695754528046, -0.19458095729351044, -0.11958733946084976, 0.09032459557056427, -0.18759462237358093, 0.19019551575183868, -0.017318623140454292, 0.09000299125909805, -0.22009579837322235, 0.012084215879440308, 0.03765110298991203, -0.14048106968402863, 0.007652505300939083, 0.056899502873420715, -0.10654554516077042, 0.07240533083677292, -0.02838197350502014, -0.06949568539857864, -0.20972833037376404, 0.09922554343938828, 0.0022387360222637653, -0.09566082805395126, 0.13204190135002136, 0.03388833627104759, -0.1353594809770584, -0.01642909273505211, 0.2033424824476242, -0.05747474730014801, -0.1822611391544342, -0.02176589146256447, -0.20599111914634705, -0.1841658502817154, -0.17011043429374695, -0.15860489010810852, 0.02427135407924652, -0.21743108332157135, -0.048531223088502884, -0.003036913461983204, -0.1188899353146553, 0.09127817302942276, -0.11362344771623611, -0.14939798414707184, -0.020843205973505974, 0.10926605015993118, -0.040649496018886566, -0.13620862364768982, -0.032195791602134705, 0.13220630586147308, 0.08207780867815018, -0.07260093837976456, 0.09973014146089554, -0.011545926332473755, 0.20509810745716095, -0.161380797624588, 0.024387937039136887, 0.09366707503795624, -0.12314276397228241, 0.06403672695159912, -0.05538387596607208, -0.1387244462966919, 0.0012690770672634244, 0.09818874299526215, 0.11234520375728607, -0.004779197741299868, -0.12271109223365784, 0.08243776112794876, -0.060477979481220245, -0.03257749602198601, 0.12048754841089249, -0.0841478481888771, -0.05025014281272888, -0.03017866425216198, -0.1151929423213005, -0.1523759514093399, 0.13830435276031494, -0.07307211309671402, 0.03683152049779892, -0.25708311796188354, -0.027462974190711975, 0.06297611445188522, 0.025874480605125427, 0.055079810321331024, 0.10757128894329071, 0.0643618106842041, -0.024009723216295242], [0.09060447663068771, 0.18737545609474182, -0.08473967015743256, -0.047158822417259216, 0.05244150757789612, -0.03002207726240158, -0.11911002546548843, 0.21891145408153534, 0.11424387246370316, -0.042874306440353394, 0.17197054624557495, 0.23412486910820007, -0.04742632433772087, 0.03152632713317871, 0.08380511403083801, 0.03603711351752281, -0.04495812952518463, 0.2792571187019348, -0.10090073943138123, 0.011949006468057632, -0.1575242578983307, -0.13629896938800812, 0.12705351412296295, -0.02484058402478695, -0.13881860673427582, 0.0966002494096756, 0.12897416949272156, 0.02453570067882538, 0.10247635841369629, 0.07376594841480255, -0.049795880913734436, -0.0338478647172451, -0.07969488203525543, 0.1438170224428177, -0.027545558288693428, 0.0919545516371727, 0.15711043775081635, 0.2398480474948883, 0.17997971177101135, -0.04332537576556206, 0.0802808552980423, 0.14663465321063995, 0.1874309480190277, -0.1684315800666809, 0.1646229773759842, -0.13604357838630676, 0.07124467194080353, 0.17259883880615234, -0.12571652233600616, 0.004450596868991852, -0.1013280600309372, 0.21141034364700317, 0.07867033779621124, -0.06283076107501984, 0.0111096715554595, -0.0025278092361986637, -0.188361257314682, 0.2264309823513031, -0.11846420168876648, 0.23931251466274261, 0.15598683059215546, 0.24426470696926117, -0.05167022719979286, 0.23523101210594177, 0.02362760901451111, -0.11907296627759933, 0.026773376390337944, 0.023549841716885567, 0.1236325353384018, -0.0877564325928688, 0.12760725617408752, 0.02608848735690117, 0.19199050962924957, 0.15661707520484924, 0.029674382880330086, 0.2145695686340332, 0.09818726032972336, -0.023542851209640503, 0.22606126964092255, 0.008209348656237125, -0.14851312339305878, 0.12208336591720581, 0.19420184195041656, 0.2274443507194519, 0.009699122048914433, 0.09175402671098709, -0.0006025438196957111, 0.2309647649526596, -0.08861872553825378, 0.0038577949162572622, -0.026985496282577515, 0.16739962995052338, -0.11533931642770767, 0.05486719310283661, 0.14589953422546387, -0.11135014146566391, 0.176849365234375, 0.033467430621385574, -0.1083669662475586, -0.014304865151643753, 0.20062822103500366, -0.02994164638221264, 0.03455868735909462, -0.1654842495918274, 0.2750416696071625, 0.08885963261127472, -0.09971537441015244, -0.07147546857595444, 0.21388396620750427, -0.15766671299934387, 0.10470088571310043, 0.13740748167037964, 0.2245451658964157, 0.284012109041214, 0.10076536983251572, -0.09302934259176254, 0.148963063955307, 0.10944483429193497, 0.01172302570194006, -0.024728739634156227, 0.021333379670977592, -0.0717504546046257, -0.004846479743719101, -0.04634390026330948, 0.1355673372745514, 0.14100860059261322, 0.16639846563339233, -0.12614481151103973], [-0.11702869832515717, -0.13195286691188812, -0.23177018761634827, -0.11221126466989517, 0.098200723528862, -0.021734250709414482, -0.13024674355983734, -0.15532629191875458, -0.1018102765083313, -0.0817403569817543, -0.016028977930545807, 0.021344294771552086, 0.046148598194122314, -0.15147742629051208, -0.03393872454762459, 0.1274951547384262, -0.09242875128984451, 0.2553224265575409, -0.1689760982990265, -0.005848707631230354, -0.005840674042701721, -0.07297391444444656, -0.1552051156759262, 0.1637721210718155, 0.06673607230186462, -0.09834705293178558, -0.2666309177875519, -0.1523818075656891, -0.17737600207328796, -0.04277772456407547, 0.22050213813781738, 0.04814230650663376, -0.14428633451461792, 0.005044847726821899, -0.09664220362901688, 0.038045432418584824, -0.1700487732887268, 0.01203226950019598, 0.16802002489566803, -0.14072372019290924, 0.08186177909374237, -0.19404786825180054, 0.21331164240837097, -0.09225951135158539, 0.16906265914440155, -0.0771019235253334, 0.05221221596002579, 0.04359571635723114, -0.043250810354948044, 0.11149866878986359, -0.16024352610111237, 0.040675658732652664, -0.12150683254003525, 0.07105524092912674, -0.07770794630050659, -0.17859478294849396, -0.037567511200904846, 0.006242723204195499, 0.220808744430542, 0.089888796210289, 0.14798174798488617, 0.022090500220656395, 0.08371123671531677, -0.04968305304646492, -0.14869120717048645, -0.07715002447366714, -0.02359556034207344, 0.13108770549297333, 0.04078874737024307, 0.07011868059635162, -0.12073768675327301, 0.11897902190685272, -0.08395058661699295, -0.10321996361017227, 0.16865620017051697, 0.05383090674877167, -0.018692903220653534, -0.13379529118537903, 0.1568417102098465, 0.15296697616577148, 0.017035970464348793, 0.13188767433166504, 0.15414974093437195, -0.04882727190852165, -0.08775686472654343, 0.08566760271787643, -0.044428639113903046, -0.060830116271972656, -0.10349637269973755, -0.13333281874656677, 0.1162964329123497, -0.0374918058514595, -0.036264702677726746, 0.2708621323108673, -0.19984519481658936, -0.05112025886774063, 0.17060726881027222, -0.07138006389141083, 0.08030141890048981, -0.03171691671013832, -0.015564057976007462, -0.007742931134998798, -0.09441778063774109, -0.06005798652768135, -0.026307370513677597, 0.012371450662612915, 0.1294723004102707, -0.2606406807899475, 0.17573247849941254, -0.21953265368938446, -0.03609303757548332, 0.06301647424697876, -0.09255485981702805, 0.16659751534461975, -0.08887679874897003, -0.04798780381679535, 0.09384046494960785, 0.0836968719959259, -0.15770334005355835, 0.13113310933113098, -0.20235972106456757, -0.113930344581604, 0.017469016835093498, -0.10301603376865387, 0.11916579306125641, 0.21230511367321014, -0.11754466593265533, -0.014102020300924778], [0.11768023669719696, -0.04271106421947479, -0.14782918989658356, -0.1366593837738037, 0.12182165682315826, 0.11821182072162628, 0.13172803819179535, 0.14111076295375824, -0.11095469444990158, 0.1611471325159073, 0.045428693294525146, 0.13230709731578827, -0.14688463509082794, 0.006412595510482788, -0.0842871218919754, -0.16026760637760162, 0.017777368426322937, -0.12344229966402054, -0.10763006657361984, -0.17641276121139526, 0.09407748281955719, 0.16594867408275604, -0.12037792801856995, -0.0192355215549469, 0.08255989849567413, 0.15747500956058502, 0.15945114195346832, 0.08316408097743988, 0.06275071203708649, 0.1348111480474472, 0.07410739362239838, -0.08762704581022263, 0.16603566706180573, 0.06068357825279236, -0.044134244322776794, 0.10631696879863739, -0.08262775838375092, 0.1149783581495285, 0.06729798018932343, 0.08470837771892548, -0.07273635268211365, -0.16263486444950104, 0.10549511015415192, -0.08376231044530869, -0.057333581149578094, 0.0949542373418808, -0.125431090593338, -0.03400614857673645, 0.11741222441196442, 0.16471914947032928, -0.03740338981151581, -0.11974555999040604, -0.14380985498428345, 0.11386819183826447, -0.17054465413093567, 0.051172345876693726, 0.11298315227031708, 0.09941215813159943, -0.02635611593723297, 0.028034821152687073, 0.11059118807315826, -0.07067432254552841, -0.03337541222572327, -0.17120280861854553, 0.10498957335948944, 0.07411898672580719, 0.16487036645412445, -0.02154521644115448, 0.002385258674621582, 0.05734972655773163, 0.0028999149799346924, -0.15602202713489532, 0.10105635225772858, -0.05601830035448074, 0.11813031136989594, -0.07431349158287048, 0.17631037533283234, -0.08478934317827225, 0.10855843126773834, -0.01909041404724121, -0.09232928603887558, 0.04279595613479614, -0.17131829261779785, 0.17058362066745758, -0.03708699345588684, -0.008323460817337036, 0.16921480000019073, 0.14082928001880646, 0.05301167070865631, 0.15523074567317963, 0.03624658286571503, -0.1672741323709488, 0.07562433183193207, 0.1292247623205185, -0.07130833715200424, -0.15858906507492065, 0.03582477569580078, 0.08678816258907318, -0.14766578376293182, -0.1622874140739441, 0.14687763154506683, -0.09834495186805725, -0.16751930117607117, -0.1454685777425766, -0.15279045701026917, 0.05426701903343201, 0.05747932195663452, 0.10944978892803192, -0.1504797637462616, -0.01720653474330902, -0.1164478212594986, -0.020425662398338318, 0.07959900796413422, 0.11625491082668304, -0.021044209599494934, 0.11836056411266327, -0.01829451322555542, -0.09791188687086105, 0.03779876232147217, -0.11619864404201508, -0.0555248036980629, 0.01702319085597992, 0.06273001432418823, -0.06378672271966934, -0.12925751507282257, 0.16711454093456268, 0.17580904066562653, -0.03567869961261749], [-0.04452021047472954, -0.09776189923286438, -0.03703121468424797, -0.13231687247753143, 0.1626393347978592, 0.06728585809469223, 0.10246576368808746, 0.043138016015291214, -0.12980800867080688, -0.08045513182878494, -0.09478648006916046, -0.14347024261951447, 0.03514108806848526, 0.17833931744098663, 0.17900407314300537, 0.07831013202667236, 0.06528142094612122, 0.04779842868447304, 0.0863448828458786, 0.050230722874403, 0.12154577672481537, -0.03964405134320259, -0.06610552966594696, 0.172186940908432, -0.009139018133282661, 0.05694779008626938, -0.01043829508125782, 0.0925522893667221, -0.06741383671760559, 0.002061227336525917, 0.073757104575634, -0.019126247614622116, 0.047058429569005966, 0.08706368505954742, -0.17279556393623352, 0.16059385240077972, -0.05516596511006355, 0.029902182519435883, 0.06746993958950043, -0.07872258126735687, 0.07206752896308899, 0.09691424667835236, 0.18146643042564392, 0.019044989719986916, -0.17491218447685242, -0.02593064308166504, 0.011781658977270126, 0.11855639517307281, 0.14424332976341248, 0.006594707258045673, 0.008744629099965096, 0.09469524025917053, -0.17154453694820404, -0.09255252033472061, -0.0481376089155674, -0.07306647300720215, 0.06289394199848175, 0.01917094551026821, 0.06907569617033005, -0.11784058064222336, 0.03172169625759125, 0.20692679286003113, -0.06281854212284088, 0.10682804137468338, 0.06178319454193115, 0.08091717958450317, 0.06476520001888275, 0.13816456496715546, 0.09491229057312012, -0.009847410954535007, -0.2235642671585083, 0.07115448266267776, 0.09138514846563339, -0.02756534516811371, -0.05049600079655647, -0.11202725768089294, 0.04167420044541359, 0.17377804219722748, -0.12102966010570526, -0.06657534837722778, 0.1352478712797165, 0.1422845423221588, 0.06566687673330307, -0.17752867937088013, -0.005508327390998602, -0.11619555950164795, 0.019591758027672768, 0.10397487878799438, -0.09821581840515137, 0.05754693225026131, -0.17078256607055664, 0.007977712899446487, -0.1231805682182312, 0.1099214106798172, 0.19028395414352417, 0.14479242265224457, 0.1581117957830429, -0.1535395085811615, -0.013581737875938416, 0.01920129917562008, 0.044256728142499924, -0.055077582597732544, 0.1333978921175003, 0.0562652125954628, -0.13918256759643555, -0.14640437066555023, 0.004061358515173197, -0.29140546917915344, 0.19868506491184235, -0.12783661484718323, -0.09606477618217468, -0.02869584783911705, 0.03333485126495361, -0.06242135167121887, 0.09433701634407043, -0.023727625608444214, 0.22270026803016663, 0.1018030047416687, -0.04606961831450462, 0.1303325742483139, -0.13213761150836945, -0.03954942524433136, 0.20134946703910828, 0.17846405506134033, -0.14917857944965363, 0.009173882193863392, 0.06134553253650665, -0.10411328822374344], [0.11686163395643234, 0.062121808528900146, -0.10977696627378464, 0.018549039959907532, -0.11361361294984818, -0.20836089551448822, 0.03071637451648712, -0.08764391392469406, -0.1292765736579895, -0.05944029241800308, 0.17573218047618866, 0.05374610424041748, 0.26331454515457153, 0.12792187929153442, -0.006431657820940018, -0.17166469991207123, -0.05567944049835205, 0.00034383562160655856, -0.09750267118215561, 0.1345096230506897, -0.08003121614456177, -0.08233742415904999, 0.17535655200481415, 0.1400861293077469, -0.01621253229677677, -0.15858621895313263, -0.1733420491218567, 0.14759595692157745, 0.005265797954052687, -0.12445003539323807, 0.0314139798283577, 0.00531183322891593, -0.00602485379204154, -0.03843051195144653, 0.11960328370332718, -0.04634388908743858, 0.015892283990979195, 0.12526853382587433, -0.0804070383310318, -0.0596354715526104, -0.16518555581569672, 0.12040632218122482, 0.10220898687839508, 0.06220465898513794, 0.029605071991682053, -0.1207476407289505, -0.08002486824989319, -0.010891987010836601, -0.08374474197626114, -0.07167059183120728, -0.1296851634979248, 0.11494805663824081, -0.13292133808135986, -0.16804048418998718, -0.040756236761808395, 0.050948597490787506, 0.03375592827796936, 0.019544634968042374, 0.10650739073753357, -0.09418001770973206, 0.01357048749923706, 0.1604621410369873, -0.0727568045258522, 0.03306858241558075, -0.12846629321575165, 0.1750592440366745, -0.07687629014253616, 0.19018031656742096, 0.03501134738326073, 0.25667351484298706, -0.30540138483047485, -0.012839563190937042, 0.2521149516105652, 0.16764715313911438, 0.11496907472610474, 0.22111162543296814, -0.026332087814807892, 0.1546805053949356, -0.015407976694405079, -0.11356192082166672, -0.12312424182891846, 0.15989813208580017, -0.19791275262832642, -0.03764671832323074, -0.1536402702331543, 0.06831201910972595, -0.17261169850826263, 0.03882036730647087, -0.11128402501344681, -0.050472866743803024, -0.08418136835098267, -0.1474052518606186, -0.04636216163635254, 0.31137534976005554, -0.050057873129844666, -0.09793438762426376, -0.07768872380256653, -0.2105736881494522, -0.0063074082136154175, -0.19324591755867004, 0.1221359595656395, -0.010671189986169338, 0.13911005854606628, -0.016442421823740005, 0.14070548117160797, -0.10392452031373978, 0.018116815015673637, -0.04073427990078926, 0.09227921813726425, -0.23500071465969086, 0.08409997820854187, -0.05755835026502609, 0.25110048055648804, 0.22439917922019958, 0.13663701713085175, 0.024866223335266113, -0.07762973010540009, -0.027527600526809692, 0.0884413942694664, -0.05453362688422203, -0.06680711358785629, 0.11274285614490509, 0.18595705926418304, 0.04274177923798561, 0.11815360933542252, 0.10071086138486862, 0.14722879230976105, 0.09886666387319565], [-0.1279546171426773, -0.32133302092552185, -0.0667753592133522, -0.13379719853401184, -0.011545702815055847, 0.1382671445608139, -0.16495244204998016, -0.10741418600082397, 0.12648050487041473, -0.14796549081802368, -0.19387859106063843, -0.06297139823436737, -0.01975003071129322, -0.06313101202249527, -0.08479897677898407, 0.03896092623472214, -0.01703178882598877, -0.11496742814779282, -0.029734112322330475, -0.0988750085234642, -0.1574619710445404, -0.12609140574932098, 0.07499214261770248, -0.03570951148867607, 0.18933509290218353, -0.2009381502866745, 0.03366250917315483, -0.14808443188667297, -0.1221097782254219, 0.15626545250415802, 0.14043790102005005, 0.16391412913799286, 0.13830356299877167, 0.08398611843585968, 0.17301607131958008, -0.1726265549659729, 0.019074222072958946, -0.27311471104621887, 0.10182946920394897, 0.006370981223881245, -0.09234631806612015, -0.0799427330493927, 0.07162933051586151, 0.18722373247146606, 0.15339483320713043, -0.048498332500457764, 0.049787744879722595, -0.021477457135915756, -0.03946013003587723, -0.16235482692718506, 0.007508752401918173, 0.07303212583065033, 0.026705756783485413, 0.12283845245838165, -0.10012520849704742, -0.15551073849201202, 0.04338715225458145, -0.03055586665868759, 0.17707887291908264, 0.12752094864845276, -0.1355552226305008, -0.1297343373298645, 0.1417388916015625, -0.10679707676172256, -0.061117567121982574, -0.0946742370724678, 0.28215011954307556, -0.13627292215824127, -0.11803246289491653, -0.12418194860219955, -0.15524892508983612, 0.1223267987370491, 0.1533508151769638, 0.11906135082244873, 0.025497345253825188, -0.16589264571666718, 0.1493450254201889, 0.08611078560352325, 0.07542365044355392, -0.11239130049943924, -0.11638887971639633, -0.1583654135465622, 0.02283060923218727, -0.05207575485110283, 0.05005577579140663, -0.015565061941742897, -0.1548362672328949, -0.10072620958089828, 0.11156473308801651, -0.20565059781074524, -0.06991535425186157, 0.10100995004177094, -0.07564777880907059, -0.035529330372810364, 0.09241713583469391, 0.24199390411376953, 0.12593156099319458, -0.020734505727887154, -0.045320168137550354, 0.057995785027742386, 0.02770179696381092, 0.06612126529216766, -0.17553558945655823, 0.0035235958639532328, 0.12095966935157776, -0.09163099527359009, 0.077752485871315, 0.07192770391702652, -0.03363210707902908, 0.09477093070745468, -0.14941561222076416, 0.07523490488529205, -0.11822488903999329, -0.14110484719276428, 0.007321471348404884, -0.14686979353427887, -0.04229037091135979, -0.0532413013279438, -0.12048350274562836, 0.2106614112854004, 0.07715226709842682, 0.00852280855178833, -0.04988401010632515, -0.11651106178760529, 0.05399203673005104, 0.007390248589217663, 0.22585172951221466, 0.027099603787064552], [0.10122467577457428, 0.14536400139331818, -0.013384511694312096, 0.16376976668834686, -0.006162166595458984, 0.08820410072803497, -0.10573877394199371, -0.07915496081113815, -0.04192083701491356, 0.16774503886699677, 0.0012594101717695594, 0.006201147101819515, -0.12121066451072693, -0.13254548609256744, -0.06999821215867996, 0.002991371788084507, 0.04884077608585358, 0.15371684730052948, -0.08944714814424515, 0.08460067212581635, 0.15189404785633087, -0.10136139392852783, 0.014037324115633965, 0.0014339238405227661, 0.002971053821966052, -0.11694741249084473, -0.006074218545109034, 0.03519687056541443, -0.003582770936191082, 0.10871344804763794, 0.0393160916864872, -0.09196533262729645, -0.023484006524086, -0.041922926902770996, 0.04534507542848587, -0.08373520523309708, 0.014860431663691998, -0.16526031494140625, 0.1638164222240448, 0.061223287135362625, -0.11048846691846848, -0.12374622374773026, -0.16809086501598358, 0.12333614379167557, -0.13579848408699036, -0.15954583883285522, 0.016612835228443146, 0.16065239906311035, 0.0709325522184372, 0.12381795048713684, 0.03500017523765564, 0.06478594243526459, -0.1397082805633545, -0.0064683170057833195, 0.02749793976545334, -0.11791221797466278, -0.09074216336011887, 0.04570811986923218, -0.06315385550260544, -0.03729134425520897, 0.1472257524728775, -0.016376618295907974, -0.10319674760103226, 0.039659008383750916, 0.1654175966978073, 0.0216769278049469, 0.03502761572599411, 0.013564631342887878, -0.13873018324375153, -0.14134155213832855, -0.12564998865127563, 0.01763923279941082, -0.08073477447032928, -0.09420895576477051, -0.08465477079153061, 0.11678992211818695, 0.012030540965497494, -0.1225656047463417, -0.14120928943157196, 0.10920803993940353, -0.16453029215335846, -0.040123552083969116, 0.12582388520240784, 0.17604824900627136, 0.17578865587711334, -0.09802272915840149, 0.02869458496570587, 0.040994517505168915, 0.0019450336694717407, 0.024487948045134544, -0.028484994545578957, 0.1265617161989212, -0.003952324390411377, 0.12563680112361908, -0.04968822002410889, -0.030000092461705208, -0.0638534352183342, -0.16763810813426971, -0.12589415907859802, -0.11932571232318878, -0.16743110120296478, 0.16189642250537872, 0.13532476127147675, -0.02197321504354477, -0.1049327552318573, -0.046538710594177246, -0.04137210547924042, 0.03434738516807556, -0.06526070088148117, 0.015423174947500229, 0.1423410326242447, -0.14015088975429535, 0.12443949282169342, -0.11328132450580597, 0.015726445242762566, 0.17406122386455536, 0.07956908643245697, -0.10862717777490616, 0.05074597895145416, 0.16465036571025848, -0.006037164479494095, -0.13403308391571045, 0.053813036531209946, -0.0034697919618338346, 0.05919918790459633, 0.12310703098773956, -0.07647907733917236, -0.04756039381027222], [-0.12940822541713715, 0.786368191242218, 0.4495886564254761, -0.1098281517624855, 0.16844682395458221, -0.18336297571659088, -0.04044170677661896, 0.1273939162492752, -0.4576732814311981, -0.12688793241977692, -0.2274085134267807, -0.12519721686840057, -0.3239370882511139, 0.04973268136382103, 0.3932722508907318, 0.6317580938339233, -0.0532921627163887, 0.14928948879241943, 0.016980845481157303, 0.32459208369255066, 0.17652089893817902, -0.060781221836805344, -0.23431168496608734, -0.11672231554985046, -0.27342402935028076, 0.2138574719429016, -0.10668836534023285, -0.025116950273513794, 0.5908228754997253, 0.05298606678843498, -0.10428216308355331, 0.019639842212200165, -0.05999254807829857, 0.16255052387714386, -0.6080164909362793, 0.11574506014585495, 0.07759255170822144, 0.15663835406303406, 0.22233529388904572, 0.3255072832107544, 0.061750948429107666, 0.0635247677564621, 0.33088380098342896, -0.23113930225372314, 0.007307994179427624, -0.10427206009626389, 0.14443518221378326, 0.051583465188741684, -0.005746909417212009, -0.3153328597545624, -0.11762623488903046, 0.15500400960445404, 0.02095647156238556, -0.29400256276130676, 0.18185000121593475, -0.10728862136602402, -0.10148927569389343, 0.22894014418125153, -0.16023266315460205, -0.20844323933124542, 0.08324100077152252, 0.33618035912513733, 0.4705977141857147, 0.004105521831661463, 0.001856982707977295, 0.18167701363563538, -0.1856435388326645, -0.14245189726352692, -0.07708746939897537, 0.15178987383842468, 0.3143845498561859, 0.27437707781791687, -0.2947065532207489, 0.35427364706993103, 0.06509754061698914, -0.2019658237695694, 0.07939600199460983, -0.05614503473043442, -0.5584114193916321, 0.1385752260684967, -0.10445506125688553, -0.1755983978509903, 0.3500492572784424, 0.028008323162794113, 0.10716207325458527, -0.1767970323562622, 0.16952472925186157, 0.10152231156826019, 0.1346231997013092, 0.4008890390396118, 0.07665131241083145, -0.07593521475791931, -0.03562550246715546, -0.08909887075424194, 0.35583773255348206, -0.03528185561299324, 0.046629298478364944, 0.19363181293010712, 0.1180640310049057, 0.15997645258903503, 0.31709206104278564, -0.12306738644838333, 0.015450455248355865, 0.621993899345398, -0.4116024076938629, -0.07535763829946518, -0.1400880217552185, 0.19904981553554535, 0.5570881366729736, -0.2706000506877899, -0.026078257709741592, 0.08264540135860443, 0.11304021626710892, -0.2990927994251251, 0.3310537040233612, -0.03452938795089722, 0.49052008986473083, -0.0019807524513453245, 0.13208678364753723, 0.19091485440731049, -0.12027110159397125, -0.03743031620979309, 0.5486755967140198, 0.32491278648376465, -0.11437172442674637, -0.19856779277324677, -0.4698476791381836, -0.15166231989860535], [-0.015135048888623714, -0.04615958407521248, 0.08884764462709427, -0.12449470907449722, -0.11039406061172485, 0.05582304671406746, -0.008876174688339233, 0.15683206915855408, 0.0637284517288208, -0.08948837965726852, -0.03248883783817291, 0.0114558981731534, -0.08368716388940811, 0.12501512467861176, 0.13035711646080017, 0.17428374290466309, 0.12103678286075592, 0.044648732990026474, 0.12368390709161758, -0.11333083361387253, -0.028315305709838867, -0.05056067183613777, -0.02038915641605854, -0.1578233689069748, 0.03211654722690582, -0.12550769746303558, -0.13046666979789734, -0.03277048468589783, -0.13673704862594604, -0.04614457115530968, -0.05546792596578598, 0.13973762094974518, 0.1051391065120697, -0.08825263381004333, -0.0262936782091856, 0.15513183176517487, 0.14858976006507874, -0.16710379719734192, -0.15872374176979065, 0.09338003396987915, 0.02565440535545349, -0.07976400852203369, 0.0538436695933342, 0.11192276328802109, 0.024763617664575577, 0.05552995204925537, 0.06709430366754532, -0.14711099863052368, 0.03310675173997879, 0.048426058143377304, 0.12446708977222443, 0.10770532488822937, 0.03641858696937561, -0.021220926195383072, 0.06366153061389923, -0.00922025740146637, -0.129868283867836, -0.05130502209067345, -0.16357992589473724, 0.049025893211364746, 0.11312012374401093, 0.10090324282646179, 0.16511134803295135, -0.003632535459473729, 0.15429408848285675, 0.18191231787204742, 0.13144752383232117, -0.009643965400755405, 0.039190661162137985, 0.011356383562088013, -0.21283496916294098, -0.08935994654893875, -0.064243845641613, 0.09935677796602249, -0.15498824417591095, -0.11267367005348206, -0.048877011984586716, 0.03762899339199066, 0.004571645986288786, 0.011481966823339462, -0.02841576561331749, 0.1629396677017212, 0.11413220316171646, -0.051533013582229614, 0.10171344131231308, -0.13533258438110352, -0.0256348866969347, 0.10353107005357742, -0.16034245491027832, 0.009868851862847805, 0.09315481781959534, -0.1303233951330185, -0.07701463997364044, 0.15861006081104279, 0.12510527670383453, 0.13445651531219482, -0.10810722410678864, 0.0797751247882843, -0.06799419969320297, -0.06738365441560745, -0.0767386332154274, 0.1239628717303276, -0.15344677865505219, -0.13972078263759613, 0.08339115977287292, 0.11913277208805084, -0.10448916256427765, 0.01606832817196846, -0.016574818640947342, 0.08958861231803894, 0.05292999744415283, 0.042213037610054016, -0.12119428813457489, -0.035464558750391006, -0.0517161525785923, -0.16251850128173828, 0.007988343946635723, 0.00038321095053106546, 0.11941423267126083, 0.12611635029315948, 0.0755198746919632, 0.12972231209278107, -0.022843003273010254, 0.14181078970432281, 0.16999462246894836, 0.09987412393093109, -0.14465853571891785, -0.05819006264209747], [-0.07127363234758377, -0.09916498512029648, 0.08968784660100937, 0.14866520464420319, -0.11674275994300842, 0.007813360542058945, -0.041794463992118835, 0.038483649492263794, 0.18285305798053741, 0.11122684180736542, -0.15284138917922974, 0.22997725009918213, 0.017783431336283684, 0.09974899888038635, -0.03080395795404911, 0.045498982071876526, 0.1246417909860611, 0.1551867425441742, 0.08510337769985199, -0.06942348182201385, 0.058855801820755005, -0.17340190708637238, -0.10017471760511398, -0.14191600680351257, 0.24128109216690063, -0.17196737229824066, 0.0455792210996151, 0.06416372954845428, 0.059060148894786835, 0.1454266905784607, -0.00525951012969017, -0.09689956158399582, -0.1153562143445015, -0.043989554047584534, 0.20425181090831757, -0.0030883050058037043, 0.1032465398311615, -0.26195409893989563, -0.14189784228801727, -0.11478636413812637, 0.12458668649196625, 0.12119019031524658, 0.026638807728886604, 0.03332802653312683, 0.13802635669708252, -0.061301618814468384, 0.1497633457183838, -0.14343246817588806, 0.04522380977869034, 0.18588097393512726, -0.1680656522512436, -0.05039937421679497, -0.08761043846607208, -0.060238417237997055, -0.18562158942222595, 0.1349097639322281, 0.02239341475069523, -0.11424363404512405, 0.17767898738384247, 0.1437833160161972, 0.14733104407787323, 0.008724783547222614, -0.05941534414887428, 0.10576338320970535, -0.08325966447591782, -0.04203451797366142, 0.29575029015541077, 0.021356943994760513, -0.04199453443288803, 0.011022564955055714, 0.022763416171073914, -0.19164283573627472, 0.0009116284199990332, -0.14179156720638275, 0.014122892171144485, 0.1344425529241562, -0.10794837772846222, 0.14343468844890594, 0.141572505235672, 0.04089163988828659, 0.13854457437992096, -0.13921356201171875, 0.1292383223772049, 0.21444641053676605, -0.07728435844182968, -0.03723450005054474, -0.0686841681599617, -0.13749562203884125, 0.11318390816450119, -0.1130683422088623, 0.11805369704961777, -0.047340717166662216, 0.1120307594537735, -0.06056505814194679, -0.17074613273143768, 0.20671877264976501, -0.11907593160867691, -0.07602357864379883, -0.14959795773029327, -0.13964810967445374, -0.09988617151975632, -0.012928280048072338, 0.09622956812381744, -0.0033953941892832518, -0.018786752596497536, 0.05326931178569794, -0.04963833466172218, -0.06949184089899063, -0.1074386015534401, 0.20840765535831451, -0.031877003610134125, 0.01938999630510807, 0.01383341196924448, 0.14286023378372192, 0.1182161346077919, 0.05431501567363739, -0.21764308214187622, 0.18939410150051117, 0.10937944799661636, -0.12768729031085968, -0.07103954255580902, -0.16390842199325562, -0.028124304488301277, -0.06520339846611023, -0.044256892055273056, 0.16869096457958221, 0.03984598442912102, 0.09630198776721954], [-0.05100877583026886, -0.16464228928089142, 0.11661925166845322, -0.010290950536727905, -0.15789975225925446, 0.06811246275901794, -0.1284366250038147, 0.19708764553070068, 0.013749164529144764, -0.09927453845739365, 0.07643159478902817, 0.09382913261651993, -0.12945961952209473, -0.16506683826446533, -0.035437170416116714, -0.05392266437411308, -0.032093942165374756, -0.11168677359819412, -0.1543632298707962, 0.047220442444086075, -0.16743463277816772, 0.09315519034862518, -0.1248185783624649, -0.04553975537419319, 0.19123616814613342, 0.08041015267372131, 0.1205606609582901, -0.029246285557746887, 0.09722279012203217, -0.11803579330444336, -0.02086317166686058, -0.0372108519077301, 0.10037383437156677, 0.0795682817697525, 0.027332575991749763, -0.14261634647846222, 0.11681434512138367, -0.08517324179410934, -0.06163329631090164, -0.1735139638185501, 0.05772681534290314, -0.007109392434358597, -0.06062779575586319, 0.17047978937625885, 0.08695697784423828, -0.08939582109451294, -0.11909525096416473, 0.03201694041490555, 0.11786963045597076, -0.02600173093378544, 0.09763140976428986, 0.04305032268166542, 0.1359366625547409, 0.20444926619529724, 0.02348122000694275, -0.12133801728487015, -0.1333855390548706, 0.10872486233711243, 0.138931006193161, 0.22701679170131683, -0.06727349013090134, -0.22925785183906555, -0.006432295311242342, 0.15955927968025208, -0.07185801863670349, -0.1567527800798416, 0.039777010679244995, -0.02341832034289837, -0.027929948642849922, -0.12530143558979034, 0.06393556296825409, 0.010505098849534988, -0.16482262313365936, -0.05459241941571236, -0.09063901752233505, -0.08691143244504929, 0.03018510900437832, 0.005069419741630554, 0.09541798382997513, -0.08352216333150864, 0.04391656443476677, 0.007006233558058739, -0.004204881843179464, 0.14963017404079437, -0.13645341992378235, 0.09293940663337708, -0.11394501477479935, 0.01243520900607109, -0.03284446895122528, -0.12157425284385681, 0.20235423743724823, -0.1462881714105606, -0.13191011548042297, 0.017810514196753502, -0.06219895929098129, 0.2579059600830078, 0.18717604875564575, 0.007251298520714045, -0.12833133339881897, 0.05995078384876251, -0.06104137748479843, 0.15494127571582794, 0.15130898356437683, -0.02130303531885147, 0.19072900712490082, -0.12479761242866516, 0.09788191318511963, 0.02761901542544365, -0.10974308848381042, 0.26918473839759827, 0.10613846033811569, 0.1087636798620224, -0.029220452532172203, 0.130311518907547, 0.08527018129825592, -0.0387081652879715, -0.20554755628108978, -0.10421936959028244, -0.18152381479740143, 0.03927389904856682, 0.03624476492404938, -0.04776127636432648, -0.2824465334415436, -0.027785995975136757, 0.005242054350674152, -0.047111786901950836, 0.1460561603307724, 0.024888643994927406], [0.14107634127140045, -0.0918329656124115, -0.12584084272384644, -0.16511133313179016, 0.08178149163722992, 0.10039101541042328, 0.1458941251039505, -0.00660271942615509, -0.030992984771728516, 0.051702797412872314, 0.10026608407497406, -0.024245485663414, -0.013090267777442932, -0.042151108384132385, 0.033952534198760986, -0.05809091776609421, -0.07982849329710007, -0.11288481205701828, -0.024982839822769165, -0.07764460891485214, 0.08250822126865387, 0.06568856537342072, 0.1584997922182083, -0.002273738384246826, 0.04644574224948883, -0.04394499957561493, 0.15021701157093048, 0.030054494738578796, 0.12376229465007782, -0.16283033788204193, 0.12078164517879486, -0.1375499963760376, 0.13844747841358185, -0.029196590185165405, -0.09371427446603775, 0.015856653451919556, 0.014415696263313293, 0.1591791957616806, 0.114354208111763, 0.14323948323726654, -0.028621971607208252, 0.1293126791715622, 0.060387492179870605, 0.02339385449886322, -0.015283718705177307, 0.12201447784900665, -0.11288447678089142, 0.03969891369342804, -0.0946885421872139, -0.08091558516025543, 0.15663407742977142, -0.05309887230396271, 0.005592465400695801, -0.14896078407764435, 0.16150932013988495, -0.14829203486442566, -0.12372396886348724, -0.12706692516803741, 0.06752970814704895, 0.12379740178585052, 0.11723510921001434, -0.05668565630912781, -0.11359232664108276, 0.07219557464122772, -0.11321954429149628, -0.018664434552192688, -0.012668877840042114, 0.025508835911750793, -0.07667742669582367, -0.11405590176582336, -0.15307895839214325, 0.15895064175128937, -0.15978151559829712, 0.050377875566482544, 0.003927543759346008, 0.0631285160779953, 0.06254279613494873, 0.001689031720161438, 0.0635739266872406, 0.042017072439193726, -0.17371194064617157, -0.011414214968681335, -0.13641126453876495, -0.11782833933830261, 0.022799506783485413, 0.057045042514801025, -0.025780588388442993, 0.05141304433345795, -0.17335686087608337, 0.04759277403354645, -0.07891335338354111, -0.1466284692287445, 0.17141549289226532, -0.09798206388950348, -0.10033301264047623, -0.14961671829223633, 0.0184820294380188, -0.04885776340961456, -0.17008495330810547, 0.07373164594173431, 0.06382794678211212, 0.16100387275218964, -0.15306828916072845, 0.09577976167201996, -0.12150666117668152, -0.007539018988609314, -0.08180619031190872, -0.09936216473579407, -0.05729632079601288, -0.022191911935806274, 0.1753087192773819, 0.077040895819664, 0.036873891949653625, 0.11734049022197723, -0.1410524845123291, 0.11020700633525848, -0.008086040616035461, 0.00799761712551117, -0.14295485615730286, -0.08218041062355042, 0.1073465496301651, -0.027494162321090698, -0.17132402956485748, -0.07861550152301788, -0.164603129029274, 0.03709171712398529, 0.0304269939661026, 0.1232600063085556], [0.006434869021177292, -0.17601247131824493, 0.03392493724822998, 0.10940571129322052, -0.056023821234703064, -0.11020615696907043, 0.0734313577413559, 0.10808707028627396, 0.1084020659327507, 0.053429096937179565, -0.10169805586338043, 0.10180114209651947, 0.03860778361558914, 0.0060942647978663445, 0.03908449783921242, 0.04129724204540253, -0.1766674518585205, -0.1450919508934021, -0.07304314523935318, -0.18496668338775635, 0.10513933002948761, 0.09847870469093323, 0.03802299499511719, -0.17699788510799408, 0.1873127520084381, -0.05840558186173439, -0.01146178599447012, 0.05795587599277496, -0.07655838131904602, 0.13005486130714417, 0.09931386262178421, -0.08091091364622116, -0.024187056347727776, -0.156263068318367, 0.05659377574920654, 0.1515173614025116, -0.17741648852825165, 0.029645971953868866, 0.11639252305030823, -0.001778426580131054, -0.062114082276821136, -0.08994431793689728, -0.10391157865524292, 0.12602423131465912, 0.03706318885087967, 0.0641888976097107, 0.0805283710360527, 0.1351938098669052, 0.18238458037376404, 0.029561612755060196, 0.1499825417995453, 0.03707457706332207, -0.006801918148994446, 0.10374018549919128, 0.1128583773970604, 0.06417997926473618, -0.07767156511545181, -0.06026478111743927, 0.07511697709560394, -0.154267817735672, -0.057795844972133636, 0.0469595305621624, -0.054427094757556915, 0.020298456773161888, 0.1407155841588974, 0.12622089684009552, 0.0969092920422554, -0.18735425174236298, -0.1912202090024948, 0.22786247730255127, 0.08754022419452667, -0.2077815681695938, 0.016150256618857384, -0.1693934053182602, -0.13094954192638397, 0.10319145023822784, -0.0716388002038002, 0.12384609878063202, 0.0342591293156147, -0.16360940039157867, 0.07323044538497925, -0.13821116089820862, -0.14461958408355713, -0.0811081975698471, -0.05542928725481033, -0.164368137717247, -0.10137112438678741, -0.18519842624664307, 0.011081809177994728, -0.0699937641620636, 0.05092157423496246, 0.0058942572213709354, -0.12097704410552979, 0.20502249896526337, 0.006181872915476561, 0.057434581220149994, -0.057250384241342545, 0.03704250231385231, -0.11630211770534515, 0.04969281703233719, 0.012360731139779091, -0.11879468709230423, 0.036291446536779404, 0.0024403424467891455, -0.07615280896425247, -0.059922657907009125, 0.03154708072543144, 0.08316297084093094, 0.07714370638132095, -0.205568328499794, 0.036733951419591904, -0.14192168414592743, -0.10108088701963425, -0.026282820850610733, -0.09818639606237411, 0.07104794681072235, 0.03802011162042618, 0.030076870694756508, -0.008906619623303413, 0.19025738537311554, 0.023271871730685234, -0.07306919246912003, 0.016335926949977875, 0.046525463461875916, -0.040704041719436646, 0.19413445889949799, -0.0662757083773613, -0.12139961868524551], [0.008991770446300507, -0.22495493292808533, -0.03533616662025452, -0.09259393066167831, 0.11854524910449982, -0.03356492519378662, -0.022343605756759644, -0.020363155752420425, 0.11531858891248703, 0.12724901735782623, 0.016131922602653503, 0.01283673383295536, 0.23966951668262482, 0.10857901722192764, -0.03730510547757149, -0.20549817383289337, -0.10338617861270905, 0.189373180270195, 0.11756967008113861, -0.0683053731918335, 0.003516644239425659, -0.009669339284300804, 0.022865094244480133, -0.06340823322534561, -0.06408482789993286, -0.019695378839969635, 0.006852489896118641, 0.03379519283771515, -0.1671009063720703, 0.0719999223947525, 0.11064058542251587, 0.11845933645963669, -0.1697586476802826, -0.11408637464046478, 0.01622902788221836, -0.11395802348852158, -0.03189731016755104, 0.3125896751880646, 0.08382377028465271, -0.10404857993125916, 0.02327568829059601, -0.09450868517160416, -0.03567123785614967, 0.025422794744372368, -0.005129386205226183, -0.16227930784225464, -0.18923653662204742, -0.08403042703866959, 0.03492782637476921, -0.03856774792075157, 0.10790883004665375, -0.016483325511217117, -0.10105317831039429, -0.0225873664021492, 0.15340971946716309, -0.1591915339231491, 0.027601085603237152, 0.10563120245933533, 0.23938046395778656, 0.008766629733145237, -0.03283087909221649, 0.22510401904582977, -0.08446796983480453, 0.23200781643390656, -0.14950379729270935, -0.1755785495042801, 0.04799741134047508, 0.09708315134048462, 0.06620462983846664, 0.06161278486251831, -0.270591676235199, -0.052919238805770874, 0.14624764025211334, -0.12080026417970657, -0.05552639067173004, 0.15675491094589233, 0.221989244222641, 0.04046855866909027, 0.09535098820924759, -0.09498654305934906, 0.0844159722328186, -0.1699889451265335, -0.19350337982177734, 0.003461779560893774, 0.036915406584739685, -0.11219201982021332, -0.15606603026390076, 0.18315818905830383, -0.09185237437486649, -0.24810150265693665, -0.22799503803253174, 0.05716058239340782, 0.11587701737880707, -0.02087984047830105, 0.03341033682227135, 0.006791589315980673, 0.2554909288883209, 0.08278445899486542, 0.13872317969799042, -0.2828672528266907, -0.11150012910366058, -0.13737043738365173, 0.1966457962989807, -0.44384121894836426, 0.08309347927570343, -0.0736594945192337, -0.11981356889009476, -0.007481698878109455, -0.08475610613822937, 0.08159857243299484, -0.06286527216434479, -0.09161455929279327, 0.17385518550872803, 0.31250450015068054, 0.06565313786268234, -0.03629855811595917, -0.12011447548866272, 0.10855631530284882, 0.11758334934711456, -0.07691565901041031, 0.11698732525110245, -0.08187159895896912, -0.13805028796195984, -0.12212512642145157, 0.14319325983524323, 0.04161868989467621, -0.044403012841939926, 0.03340473771095276], [0.03870290517807007, -0.08130194246768951, 0.0164918452501297, 0.1689014583826065, 0.0358121395111084, 0.12429378926753998, 0.033714696764945984, -0.10672824829816818, -0.1047559455037117, -0.025639906525611877, 0.06351238489151001, -0.02999776601791382, 0.11983124911785126, -0.14663174748420715, -0.12379254400730133, 0.04918031394481659, -0.1442941576242447, -0.12671209871768951, -0.06446339190006256, 0.0365699827671051, -0.041540443897247314, 0.05626516044139862, -0.0107136070728302, 0.11730729043483734, -0.14885444939136505, 0.04103176295757294, 0.12557999789714813, -0.002379104495048523, 0.11512736976146698, 0.16704560816287994, -0.09565328061580658, 0.13497276604175568, -0.059564076364040375, -0.0315915048122406, 0.13400830328464508, -0.0388464480638504, 0.10421730577945709, 0.051834046840667725, -0.13222692906856537, -0.14276814460754395, -0.11382725834846497, -0.07536260783672333, -0.004112347960472107, 0.10434196889400482, -0.020160898566246033, 0.04020623862743378, -0.042761847376823425, 0.002741903066635132, -0.08265595138072968, 0.16436798870563507, -0.14039164781570435, 0.051835402846336365, 0.16037209331989288, 0.16127650439739227, 0.04622498154640198, 0.10673551261425018, -0.1611991822719574, 0.013497143983840942, -0.10410022735595703, -0.1686922162771225, -0.045842915773391724, 0.01375386118888855, 0.01883108913898468, 0.004456520080566406, 0.02925725281238556, 0.03996284306049347, 0.1565505415201187, -0.024623200297355652, 0.081300750374794, -0.07991274446249008, -0.07644152641296387, -0.0385730117559433, 0.07735852897167206, -0.09462612122297287, -0.004822954535484314, 0.10743348300457001, -0.012293562293052673, -0.17284312844276428, -0.11125890910625458, 0.0686701089143753, 0.16086630523204803, 0.14271463453769684, 0.07747302949428558, -0.0007139295339584351, 0.01107122004032135, -0.12319300323724747, -0.055300287902355194, -0.14000512659549713, -0.10646951198577881, -0.07770588994026184, -0.07486257702112198, 0.07081888616085052, 0.011669278144836426, 0.06993493437767029, -0.07584106177091599, -0.06983189284801483, 0.0594068318605423, -0.10090983659029007, -0.0029277801513671875, -0.13068261742591858, -0.11353029310703278, -0.10235273838043213, -0.12591387331485748, -0.10580182075500488, -0.041024431586265564, 0.1660507768392563, 0.01913990080356598, -0.15326009690761566, 0.12598882615566254, 0.058382660150527954, -0.1353914737701416, -0.04984433948993683, -0.086289182305336, -0.13942784070968628, -0.10456502437591553, 0.012919098138809204, 0.005767375230789185, -0.16275662183761597, -0.044034942984580994, 0.1390642374753952, -0.07297495007514954, -0.08808548003435135, 0.13796497881412506, -0.12064813077449799, 0.07247170805931091, -0.06954099237918854, -0.09197327494621277, 0.1226266473531723], [0.062132328748703, -0.022657766938209534, -0.07622291147708893, -0.0795966386795044, -0.01774255931377411, 0.13224391639232635, -0.06221022456884384, -0.13093668222427368, 0.12884370982646942, 0.1176503449678421, -0.05776368826627731, 0.1244644969701767, 0.04584565758705139, -0.05529211461544037, 0.02980780601501465, 0.11100547015666962, 0.021331652998924255, -0.1350647211074829, 0.04930448532104492, -0.15175659954547882, 0.016247689723968506, 0.09836302697658539, 0.03461495041847229, -0.07621945440769196, -0.15581057965755463, -0.08801901340484619, -0.05446060001850128, 0.04032294452190399, -0.12465204298496246, -0.1275484561920166, -0.06774469465017319, 0.008847206830978394, 0.030187591910362244, 0.10771866142749786, -0.09131021797657013, 0.04797428846359253, -0.038923293352127075, 0.16734717786312103, -0.16596555709838867, 0.09116967022418976, -0.02517785131931305, 0.07849596440792084, 0.10899968445301056, -0.06242883950471878, 0.08848844468593597, -0.015672773122787476, -0.17504294216632843, -0.024275705218315125, -0.15163563191890717, -0.1518280804157257, -0.05562916398048401, -0.10392194986343384, -0.0926222950220108, -0.04643887281417847, -0.025462210178375244, 0.015138179063796997, 0.14933674037456512, 0.05534842610359192, 0.0010239183902740479, -0.032223835587501526, -0.08244311064481735, -0.1371854543685913, -0.11702793091535568, -0.029030755162239075, -0.11222841590642929, 0.09572111070156097, 0.15803857147693634, 0.09038685262203217, -0.07095586508512497, -0.01045253872871399, 0.07161609828472137, -0.1756095141172409, 0.12734399735927582, 0.17034216225147247, -0.05762810260057449, -0.10266103595495224, 0.10337100923061371, -0.15806341171264648, 0.001510918140411377, -0.12007826566696167, -0.054931506514549255, -0.04623959958553314, -0.042908743023872375, -0.07492765784263611, -0.10197822004556656, 0.01650846004486084, -0.17128555476665497, -0.16190601885318756, -0.15188370645046234, -0.0021722018718719482, 0.034160271286964417, -0.0021537095308303833, -0.15916992723941803, -0.12449023872613907, -0.11171822994947433, -0.1630253940820694, -0.13151468336582184, -0.1084466204047203, -0.15389373898506165, 0.16017703711986542, -0.04047985374927521, -0.11388196051120758, -0.16449101269245148, -0.1205497682094574, -0.07975456118583679, -0.03899742662906647, 0.0904514342546463, 0.006546124815940857, -0.027189433574676514, 0.12867705523967743, -0.12002208828926086, -0.03342413902282715, -0.06491440534591675, -0.14449983835220337, 0.13444013893604279, -0.020041465759277344, 0.14049290120601654, 0.08535991609096527, -0.13870123028755188, -0.01947183907032013, -0.039575591683387756, 0.058734625577926636, 0.11684830486774445, 0.1011117547750473, -0.010577172040939331, 0.050956979393959045, 0.05872964859008789, 0.10687465965747833], [-0.026020288467407227, -0.01545010507106781, -0.16674059629440308, -0.10620857775211334, -0.1503513753414154, 0.1016346663236618, -0.011225849390029907, -0.047211840748786926, 0.006450280547142029, 0.05427674949169159, -0.12454402446746826, -0.08746233582496643, -0.01704186201095581, -0.16805297136306763, 0.13414771854877472, 0.05254502594470978, -0.0989178940653801, 0.005294233560562134, -0.15067316591739655, 0.03232671320438385, -0.034277573227882385, -0.1498832106590271, 0.1188637763261795, 0.11462955176830292, -0.1645015925168991, 0.05785961449146271, -0.011920347809791565, -0.061887167394161224, -0.1048770323395729, -0.1295013278722763, -0.0331956148147583, 0.02442312240600586, 0.07751516997814178, -0.0733625739812851, 0.09119348227977753, -0.11433719098567963, -0.10671236366033554, 0.04726870357990265, 0.0028203874826431274, 0.02646881341934204, -0.12169800698757172, -0.02179776132106781, 0.04452553391456604, -0.17317768931388855, -0.042783692479133606, -0.05104796588420868, 0.13299085199832916, -0.15279985964298248, -0.04026162624359131, 0.03398342430591583, -0.03916339576244354, -0.07824625819921494, -0.007720962166786194, 0.02584920823574066, -0.12506301701068878, -0.04506635665893555, -0.11046882718801498, 0.05247312784194946, 0.13136540353298187, -0.033459827303886414, 0.14978383481502533, -0.1538993865251541, -0.16232720017433167, 0.06603686511516571, -0.16062159836292267, -0.01286114752292633, -0.11880622804164886, 0.05357643961906433, -0.10037267953157425, -0.04702728986740112, 0.06980133056640625, -0.14043186604976654, -0.030973121523857117, 0.1530015617609024, 0.04778006672859192, -0.059468530118465424, -0.11614680290222168, 0.023136764764785767, -0.1035400927066803, 0.1658691018819809, -0.08320517092943192, 0.037545084953308105, -0.14730718731880188, 0.1572830229997635, 0.021159157156944275, 0.06295208632946014, 0.06508772075176239, -0.1430933177471161, -0.1026788279414177, -0.03701353073120117, -0.027009770274162292, 0.04233381152153015, -0.11601674556732178, -0.15855635702610016, -0.03906376659870148, -0.07157297432422638, -0.0804985836148262, -0.06255506724119186, -0.03352954983711243, 0.05786627531051636, -0.15768598020076752, -0.09557779878377914, -0.14932788908481598, 0.08552445471286774, 0.034050434827804565, -0.1069362461566925, -0.03719143569469452, 0.05670912563800812, 0.15365801751613617, -0.09614969044923782, 0.08750663697719574, 0.15540681779384613, 0.10381536185741425, -0.15982447564601898, -0.1704627126455307, 0.06045442819595337, 0.09619854390621185, -0.08783537894487381, -0.16570378839969635, 0.1749797910451889, 0.033347636461257935, -0.10171922296285629, 0.051769524812698364, 0.16413246095180511, 0.15836851298809052, -0.02545526623725891, -0.0598839670419693, 0.13188771903514862], [0.10530345141887665, -0.019729120656847954, -0.07080056518316269, -0.01659911870956421, -0.048905134201049805, -0.06421751528978348, 0.07572858035564423, -0.092108815908432, -0.05660468339920044, 0.02560567855834961, 0.07507205009460449, -0.08448988199234009, 0.02217124029994011, 0.08534940332174301, 0.10277511179447174, 0.15143531560897827, -0.1149875596165657, 0.10257420688867569, -0.02133874036371708, 0.17240364849567413, 0.09480355679988861, 0.06099465489387512, 0.1018945500254631, 0.04118849337100983, -0.08582320809364319, 0.06868158280849457, -0.1586790680885315, -0.06501530855894089, -0.035506702959537506, -0.027353988960385323, -0.04072447493672371, 0.15430137515068054, -0.08721821010112762, -0.09716547280550003, -0.02622292749583721, 0.1110018938779831, 0.11255796253681183, -0.10695259273052216, 0.19581110775470734, 0.19243940711021423, 0.10053054988384247, 0.05683271214365959, 0.09091028571128845, 0.13061508536338806, 0.0030131330713629723, -0.06786864995956421, 0.06309980899095535, 0.08392584323883057, -0.020146029070019722, -0.07609646767377853, -0.05644781515002251, 0.06876902282238007, 0.01894758641719818, -0.12786822021007538, 0.1871064156293869, -0.06601845473051071, -0.032446689903736115, 0.14888642728328705, 0.030988940969109535, 0.12305504828691483, -0.021027401089668274, 0.03634140267968178, 0.047286275774240494, -0.13304410874843597, -0.10259410738945007, 0.2058422565460205, 0.027243467047810555, 0.13236545026302338, 0.08951662480831146, 0.010135918855667114, 0.056291475892066956, 0.10817404091358185, -0.03749348223209381, -0.1408424973487854, 0.09716791659593582, -0.040393389761447906, -0.06322868168354034, 0.15054269134998322, 0.12771295011043549, 0.062047332525253296, -0.033928003162145615, 0.06869138777256012, 0.07179621607065201, -0.07612939924001694, 0.039350252598524094, -0.12451079487800598, 0.11698642373085022, 0.15176375210285187, -0.15119151771068573, -0.14139020442962646, -0.06468439102172852, -0.03362363204360008, -0.1355939507484436, 0.047756630927324295, -0.0935608446598053, 0.15784846246242523, -0.0006069739465601742, 0.15854333341121674, -0.024561330676078796, -0.07505889981985092, 0.1699783354997635, 0.055198170244693756, 0.00827351026237011, -0.056808922439813614, 0.10392305254936218, -0.07377654314041138, 0.03871636092662811, -0.043622951954603195, 0.06066286936402321, -0.05015908181667328, -0.04200383648276329, 0.004033835604786873, 0.18694958090782166, -0.006038203369826078, -0.09220424294471741, -0.03553728759288788, 0.22757267951965332, -0.04796471819281578, -0.07942847907543182, 0.07876604050397873, -0.06518787145614624, -0.09668929129838943, 0.23401492834091187, 0.00852159969508648, -0.1299884170293808, -0.04505503922700882, 0.003511399030685425, -0.17647798359394073], [-0.16241110861301422, 0.13158784806728363, 0.07492730766534805, -0.08211078494787216, 0.14071868360042572, 0.12219933420419693, -0.11597375571727753, 0.17695915699005127, 0.2953091859817505, -0.016891151666641235, 0.17935320734977722, 0.36629486083984375, -0.11154039949178696, 0.17672528326511383, -0.14096353948116302, 0.10064742714166641, -0.15852925181388855, -0.03118368797004223, 0.22509825229644775, -0.1032860279083252, 0.014574378728866577, -0.010794401168823242, 0.32249030470848083, 0.185322567820549, 0.007218051701784134, 0.060421641916036606, 0.15164630115032196, -0.15946488082408905, 0.06608256697654724, -0.11894741654396057, -0.11074759066104889, -0.08852577954530716, 0.07708293944597244, -0.086487777531147, 0.29965537786483765, -0.13040240108966827, -0.08981930464506149, 0.11057127267122269, -0.1597651094198227, -0.035594429820775986, 0.12081487476825714, 0.14606283605098724, 0.02392652817070484, 0.0921139270067215, 0.026825958862900734, 0.015156641602516174, -0.1475861370563507, 0.10996174812316895, 0.00823039561510086, 0.26837754249572754, 0.11265002191066742, 0.09833654761314392, 0.1289263516664505, 0.1350671797990799, 0.09304551035165787, 0.007956787943840027, 0.02025953307747841, -0.03936481103301048, 0.01729663833975792, 0.14068034291267395, -0.04951971769332886, 0.11773844808340073, 0.022167133167386055, 0.25952261686325073, 0.14956073462963104, -0.2920973300933838, 0.19648632407188416, 0.20402075350284576, -0.05537250638008118, 0.002719338983297348, -0.059580735862255096, 0.18449805676937103, 0.22149816155433655, -0.12729091942310333, 0.1312943994998932, 0.152614027261734, 0.21859925985336304, 0.01151430606842041, 0.01990143209695816, -0.13348820805549622, 0.09339722245931625, 0.13942472636699677, 0.23422881960868835, 0.049677781760692596, 0.030939258635044098, 0.09718748927116394, 0.09684833884239197, 0.004028212279081345, 0.15721750259399414, -0.17795974016189575, 0.07075457274913788, -0.016873955726623535, 0.03796550631523132, 0.08426348865032196, -0.009641289710998535, -0.08620981127023697, 0.04129835590720177, -0.007017197553068399, -0.08733560144901276, -0.07528107613325119, 0.03621133789420128, -0.08683447539806366, 0.08479508757591248, -0.15245266258716583, 0.36604776978492737, 0.056426867842674255, 0.16659297049045563, 0.22077018022537231, 0.05643891543149948, 0.41949033737182617, -0.1362374722957611, -0.031038779765367508, 0.20730367302894592, 0.11796239018440247, -0.07028019428253174, -0.04396948218345642, -0.1927664875984192, 0.06140266731381416, -0.05083831027150154, -0.10696824640035629, 0.2162887156009674, 0.11017899215221405, 0.011100254952907562, -0.17164090275764465, 0.259898841381073, 0.10138048231601715, 0.23315104842185974, -0.043778348714113235], [-0.1621525138616562, -0.09965479373931885, -0.17850033938884735, 0.04074457287788391, -0.002393007278442383, 0.18521669507026672, 0.13148526847362518, 0.03226083517074585, 0.1262127161026001, -0.048278287053108215, -0.09453326463699341, -0.05158162862062454, -0.10513757169246674, -0.1836334466934204, -0.11713110655546188, 0.025959521532058716, 0.03219324350357056, -0.10744801163673401, 0.10780325531959534, -0.026283415034413338, 0.13020218908786774, -0.040512874722480774, 0.11793950945138931, -0.03414174169301987, 0.07216068357229233, 0.016017664223909378, 0.012880957685410976, -0.08943295478820801, 0.0029141248669475317, -0.16409802436828613, 0.07900078594684601, -0.17338667809963226, -0.11455920338630676, 0.02921341359615326, -0.09938698261976242, -0.1263827383518219, 0.10054625570774078, -0.018999695777893066, -0.16227412223815918, -0.19579879939556122, 0.1715364009141922, 0.13475172221660614, -0.1673048585653305, 0.11878012865781784, 0.17695418000221252, -0.03672654926776886, 0.16201862692832947, -0.04975920915603638, -0.1060987263917923, 0.0247303768992424, 0.06857190281152725, -0.07493280619382858, -0.02503800392150879, -0.11108288168907166, 0.10930942744016647, -0.02931717410683632, 0.10698527097702026, -0.041868146508932114, -0.09461136162281036, 0.0911528542637825, -0.016062885522842407, -0.12479894608259201, -0.02970973215997219, -0.13327302038669586, -0.0037792176008224487, 0.03188673406839371, 0.21433469653129578, -0.0027289565186947584, -0.1121397390961647, 0.21449966728687286, 0.03137945383787155, -0.03553840145468712, -0.012458194978535175, 0.07187853753566742, 0.06257200241088867, -0.1903773546218872, 0.05801201984286308, -0.1366371214389801, 0.09206680208444595, -0.11821707338094711, -0.10160453617572784, -0.11110352724790573, 0.17984554171562195, 0.17299193143844604, -0.1203441321849823, 0.05551617592573166, 0.07605696469545364, -0.06846263259649277, 0.06977887451648712, 0.07755395025014877, 0.10783074051141739, -0.1682511866092682, 0.07146115601062775, 0.14945806562900543, 0.02383226901292801, 0.21092993021011353, 0.059696000069379807, 0.020838817581534386, -0.05970202386379242, 0.05470409616827965, -0.053695715963840485, -0.006827631499618292, 0.06379370391368866, 0.03144866228103638, 0.05633218213915825, 0.05065158009529114, 0.12728503346443176, -0.19771330058574677, 0.07004064321517944, 0.17648246884346008, -0.11613526195287704, 0.1710735559463501, 0.04569285735487938, 0.12225162237882614, 0.0763905867934227, 0.01119735836982727, -0.09796763956546783, -0.11819485574960709, 0.1515541672706604, 0.009701812639832497, 0.04665521904826164, -0.055158719420433044, -0.14943474531173706, -0.009885160252451897, -0.11707872152328491, -0.0740145817399025, -0.06320032477378845, 0.09266386926174164], [0.034600913524627686, -0.09315266460180283, 0.0016375333070755005, 0.12393416464328766, 0.023734062910079956, -0.025763943791389465, 0.11215852200984955, 0.13594679534435272, -0.12802235782146454, -0.1390591412782669, 0.17451201379299164, 0.06630820035934448, 0.056433483958244324, -0.00865127146244049, -0.04006534814834595, -0.1693459451198578, 0.04259870946407318, 0.12247301638126373, 0.0674225240945816, 0.1692839115858078, 0.037826716899871826, -0.12221439182758331, -0.02334176003932953, 0.056710779666900635, 0.06218986213207245, 0.0657363086938858, -0.03531952202320099, 0.02548573911190033, -0.10636857151985168, 0.17156566679477692, 0.09220950305461884, -0.05001051723957062, -0.12929633259773254, -0.15753264725208282, -0.16335469484329224, -0.06987353414297104, -0.030016347765922546, -0.01565772294998169, 0.08984999358654022, 0.08423052728176117, -0.03441281616687775, -0.005373135209083557, 0.16531948745250702, -0.018511861562728882, 0.03311574459075928, 0.1269279271364212, -0.1165853887796402, 0.1307516247034073, 